{"classes_": [0, 1, 2], "dtrees": [{"children_left": [1, 2, -1, -1, 5, -1, -1], "children_right": [4, 3, -1, -1, 6, -1, -1], "threshold": [0.30000000447034836, -2.3499999046325684, -2.0, -2.0, -0.05000000074505806, -2.0, -2.0], "feature": [197, 107, -2, -2, 8, -2, -2], "classes": [0, 1, 2], "value": [[17.0, 19.0, 24.0], [16.0, 3.0, 24.0], [0.0, 0.0, 19.0], [16.0, 3.0, 5.0], [1.0, 16.0, 0.0], [0.0, 16.0, 0.0], [1.0, 0.0, 0.0]]}, {"children_left": [1, 2, -1, -1, 5, -1, -1], "children_right": [4, 3, -1, -1, 6, -1, -1], "threshold": [6.3500001430511475, 0.10000000521540642, -2.0, -2.0, 0.15000000223517418, -2.0, -2.0], "feature": [29, 195, -2, -2, 62, -2, -2], "classes": [0, 1, 2], "value": [[20.0, 17.0, 23.0], [1.0, 0.0, 15.0], [0.0, 0.0, 15.0], [1.0, 0.0, 0.0], [19.0, 17.0, 8.0], [7.0, 17.0, 1.0], [12.0, 0.0, 7.0]]}, {"children_left": [1, 2, -1, -1, 5, -1, -1], "children_right": [4, 3, -1, -1, 6, -1, -1], "threshold": [-1.949999988079071, -0.45000000298023224, -2.0, -2.0, -0.25, -2.0, -2.0], "feature": [116, 16, -2, -2, 143, -2, -2], "classes": [0, 1, 2], "value": [[19.0, 18.0, 23.0], [1.0, 0.0, 17.0], [1.0, 0.0, 0.0], [0.0, 0.0, 17.0], [18.0, 18.0, 6.0], [14.0, 0.0, 6.0], [4.0, 18.0, 0.0]]}, {"children_left": [1, 2, -1, -1, 5, -1, -1], "children_right": [4, 3, -1, -1, 6, -1, -1], "threshold": [-0.05000000074505806, 6.799999952316284, -2.0, -2.0, 12.450000286102295, -2.0, -2.0], "feature": [143, 110, -2, -2, 56, -2, -2], "classes": [0, 1, 2], "value": [[17.0, 25.0, 18.0], [16.0, 0.0, 14.0], [0.0, 0.0, 11.0], [16.0, 0.0, 3.0], [1.0, 25.0, 4.0], [1.0, 25.0, 0.0], [0.0, 0.0, 4.0]]}, {"children_left": [1, -1, 3, -1, -1], "children_right": [2, -1, 4, -1, -1], "threshold": [7.299999952316284, -2.0, 0.9500000178813934, -2.0, -2.0], "feature": [110, -2, 80, -2, -2], "classes": [0, 1, 2], "value": [[20.0, 20.0, 20.0], [0.0, 0.0, 16.0], [20.0, 20.0, 4.0], [4.0, 20.0, 1.0], [16.0, 0.0, 3.0]]}, {"children_left": [1, 2, -1, -1, 5, -1, -1], "children_right": [4, 3, -1, -1, 6, -1, -1], "threshold": [-0.550000011920929, -0.15000000223517418, -2.0, -2.0, 0.9000000059604645, -2.0, -2.0], "feature": [78, 192, -2, -2, 89, -2, -2], "classes": [0, 1, 2], "value": [[24.0, 16.0, 20.0], [1.0, 0.0, 14.0], [1.0, 0.0, 0.0], [0.0, 0.0, 14.0], [23.0, 16.0, 6.0], [11.0, 16.0, 1.0], [12.0, 0.0, 5.0]]}, {"children_left": [1, -1, 3, -1, -1], "children_right": [2, -1, 4, -1, -1], "threshold": [7.299999952316284, -2.0, 9.900000095367432, -2.0, -2.0], "feature": [110, -2, 155, -2, -2], "classes": [0, 1, 2], "value": [[18.0, 17.0, 25.0], [0.0, 0.0, 16.0], [18.0, 17.0, 9.0], [14.0, 0.0, 9.0], [4.0, 17.0, 0.0]]}, {"children_left": [1, 2, -1, -1, 5, -1, -1], "children_right": [4, 3, -1, -1, 6, -1, -1], "threshold": [0.20000000670552254, -2.100000023841858, -2.0, -2.0, -0.30000000447034836, -2.0, -2.0], "feature": [179, 125, -2, -2, 93, -2, -2], "classes": [0, 1, 2], "value": [[20.0, 25.0, 15.0], [20.0, 0.0, 13.0], [0.0, 0.0, 8.0], [20.0, 0.0, 5.0], [0.0, 25.0, 2.0], [0.0, 0.0, 1.0], [0.0, 25.0, 1.0]]}, {"children_left": [1, 2, -1, -1, 5, -1, -1], "children_right": [4, 3, -1, -1, 6, -1, -1], "threshold": [12.5, 0.20000000670552254, -2.0, -2.0, 0.550000011920929, -2.0, -2.0], "feature": [47, 179, -2, -2, 18, -2, -2], "classes": [0, 1, 2], "value": [[21.0, 16.0, 23.0], [17.0, 16.0, 2.0], [16.0, 0.0, 1.0], [1.0, 16.0, 1.0], [4.0, 0.0, 21.0], [2.0, 0.0, 21.0], [2.0, 0.0, 0.0]]}, {"children_left": [1, 2, -1, -1, 5, -1, -1], "children_right": [4, 3, -1, -1, 6, -1, -1], "threshold": [4.099999904632568, -0.2500000074505806, -2.0, -2.0, -0.05000000074505806, -2.0, -2.0], "feature": [53, 136, -2, -2, 192, -2, -2], "classes": [0, 1, 2], "value": [[21.0, 18.0, 21.0], [20.0, 18.0, 3.0], [18.0, 7.0, 3.0], [2.0, 11.0, 0.0], [1.0, 0.0, 18.0], [1.0, 0.0, 1.0], [0.0, 0.0, 17.0]]}, {"children_left": [1, 2, -1, -1, 5, -1, -1], "children_right": [4, 3, -1, -1, 6, -1, -1], "threshold": [-0.5999999940395355, -0.699999988079071, -2.0, -2.0, -0.800000011920929, -2.0, -2.0], "feature": [0, 197, -2, -2, 63, -2, -2], "classes": [0, 1, 2], "value": [[18.0, 19.0, 23.0], [6.0, 12.0, 0.0], [6.0, 0.0, 0.0], [0.0, 12.0, 0.0], [12.0, 7.0, 23.0], [2.0, 0.0, 18.0], [10.0, 7.0, 5.0]]}, {"children_left": [1, 2, -1, -1, 5, -1, -1], "children_right": [4, 3, -1, -1, 6, -1, -1], "threshold": [10.050000190734863, 5.400000095367432, -2.0, -2.0, 9.200000286102295, -2.0, -2.0], "feature": [191, 20, -2, -2, 173, -2, -2], "classes": [0, 1, 2], "value": [[24.0, 14.0, 22.0], [22.0, 1.0, 22.0], [0.0, 0.0, 10.0], [22.0, 1.0, 12.0], [2.0, 13.0, 0.0], [2.0, 0.0, 0.0], [0.0, 13.0, 0.0]]}, {"children_left": [1, 2, -1, -1, -1], "children_right": [4, 3, -1, -1, -1], "threshold": [6.449999809265137, 0.45000000298023224, -2.0, -2.0, -2.0], "feature": [71, 188, -2, -2, -2], "classes": [0, 1, 2], "value": [[24.0, 13.0, 23.0], [24.0, 13.0, 12.0], [22.0, 1.0, 12.0], [2.0, 12.0, 0.0], [0.0, 0.0, 11.0]]}, {"children_left": [1, -1, 3, -1, -1], "children_right": [2, -1, 4, -1, -1], "threshold": [-1.8499999642372131, -2.0, -0.4000000059604645, -2.0, -2.0], "feature": [116, -2, 197, -2, -2], "classes": [0, 1, 2], "value": [[22.0, 15.0, 23.0], [0.0, 0.0, 13.0], [22.0, 15.0, 10.0], [20.0, 0.0, 1.0], [2.0, 15.0, 9.0]]}, {"children_left": [1, 2, -1, -1, 5, -1, -1], "children_right": [4, 3, -1, -1, 6, -1, -1], "threshold": [10.200000286102295, 3.049999952316284, -2.0, -2.0, 10.799999713897705, -2.0, -2.0], "feature": [182, 134, -2, -2, 74, -2, -2], "classes": [0, 1, 2], "value": [[18.0, 26.0, 16.0], [11.0, 1.0, 16.0], [5.0, 1.0, 16.0], [6.0, 0.0, 0.0], [7.0, 25.0, 0.0], [0.0, 25.0, 0.0], [7.0, 0.0, 0.0]]}, {"children_left": [1, 2, -1, -1, 5, -1, -1], "children_right": [4, 3, -1, -1, 6, -1, -1], "threshold": [9.700000286102295, -0.05000000074505806, -2.0, -2.0, 9.550000190734863, -2.0, -2.0], "feature": [137, 139, -2, -2, 173, -2, -2], "classes": [0, 1, 2], "value": [[23.0, 21.0, 16.0], [20.0, 0.0, 13.0], [5.0, 0.0, 12.0], [15.0, 0.0, 1.0], [3.0, 21.0, 3.0], [2.0, 0.0, 3.0], [1.0, 21.0, 0.0]]}, {"children_left": [1, 2, -1, -1, 5, -1, -1], "children_right": [4, 3, -1, -1, 6, -1, -1], "threshold": [0.20000000670552254, 16.399999618530273, -2.0, -2.0, -0.599999975413084, -2.0, -2.0], "feature": [179, 65, -2, -2, 143, -2, -2], "classes": [0, 1, 2], "value": [[20.0, 19.0, 21.0], [18.0, 0.0, 17.0], [18.0, 0.0, 3.0], [0.0, 0.0, 14.0], [2.0, 19.0, 4.0], [2.0, 0.0, 4.0], [0.0, 19.0, 0.0]]}, {"children_left": [1, 2, -1, -1, 5, -1, -1], "children_right": [4, 3, -1, -1, 6, -1, -1], "threshold": [0.15000000223517418, -0.15000000223517418, -2.0, -2.0, -1.550000011920929, -2.0, -2.0], "feature": [66, 18, -2, -2, 116, -2, -2], "classes": [0, 1, 2], "value": [[18.0, 21.0, 21.0], [16.0, 19.0, 3.0], [5.0, 18.0, 1.0], [11.0, 1.0, 2.0], [2.0, 2.0, 18.0], [0.0, 0.0, 18.0], [2.0, 2.0, 0.0]]}, {"children_left": [1, 2, -1, -1, -1], "children_right": [4, 3, -1, -1, -1], "threshold": [0.2500000074505806, 0.9500000178813934, -2.0, -2.0, -2.0], "feature": [40, 80, -2, -2, -2], "classes": [0, 1, 2], "value": [[23.0, 19.0, 18.0], [23.0, 19.0, 8.0], [5.0, 19.0, 2.0], [18.0, 0.0, 6.0], [0.0, 0.0, 10.0]]}, {"children_left": [1, 2, -1, -1, 5, -1, -1], "children_right": [4, 3, -1, -1, 6, -1, -1], "threshold": [11.199999809265137, 9.5, -2.0, -2.0, 0.0, -2.0, -2.0], "feature": [92, 47, -2, -2, 43, -2, -2], "classes": [0, 1, 2], "value": [[22.0, 18.0, 20.0], [7.0, 18.0, 16.0], [3.0, 17.0, 0.0], [4.0, 1.0, 16.0], [15.0, 0.0, 4.0], [0.0, 0.0, 4.0], [15.0, 0.0, 0.0]]}, {"children_left": [1, -1, 3, -1, -1], "children_right": [2, -1, 4, -1, -1], "threshold": [-1.6999999284744263, -2.0, -0.15000000596046448, -2.0, -2.0], "feature": [107, -2, 197, -2, -2], "classes": [0, 1, 2], "value": [[20.0, 16.0, 24.0], [0.0, 0.0, 19.0], [20.0, 16.0, 5.0], [17.0, 0.0, 2.0], [3.0, 16.0, 3.0]]}, {"children_left": [1, 2, -1, -1, 5, -1, -1], "children_right": [4, 3, -1, -1, 6, -1, -1], "threshold": [4.049999952316284, 0.10000000521540642, -2.0, -2.0, 0.15000000223517418, -2.0, -2.0], "feature": [53, 179, -2, -2, 60, -2, -2], "classes": [0, 1, 2], "value": [[20.0, 15.0, 25.0], [18.0, 15.0, 2.0], [15.0, 0.0, 0.0], [3.0, 15.0, 2.0], [2.0, 0.0, 23.0], [0.0, 0.0, 22.0], [2.0, 0.0, 1.0]]}, {"children_left": [1, 2, -1, -1, 5, -1, -1], "children_right": [4, 3, -1, -1, 6, -1, -1], "threshold": [-0.6500000059604645, 0.05000000074505806, -2.0, -2.0, 0.550000011920929, -2.0, -2.0], "feature": [51, 131, -2, -2, 170, -2, -2], "classes": [0, 1, 2], "value": [[22.0, 18.0, 20.0], [1.0, 0.0, 11.0], [0.0, 0.0, 11.0], [1.0, 0.0, 0.0], [21.0, 18.0, 9.0], [16.0, 1.0, 9.0], [5.0, 17.0, 0.0]]}, {"children_left": [1, 2, -1, -1, 5, -1, -1], "children_right": [4, 3, -1, -1, 6, -1, -1], "threshold": [10.75, 2.4499999582767487, -2.0, -2.0, -0.45000001788139343, -2.0, -2.0], "feature": [65, 44, -2, -2, 78, -2, -2], "classes": [0, 1, 2], "value": [[18.0, 25.0, 17.0], [3.0, 25.0, 3.0], [3.0, 25.0, 0.0], [0.0, 0.0, 3.0], [15.0, 0.0, 14.0], [1.0, 0.0, 13.0], [14.0, 0.0, 1.0]]}, {"children_left": [1, 2, -1, -1, 5, -1, -1], "children_right": [4, 3, -1, -1, 6, -1, -1], "threshold": [9.550000190734863, -2.149999976158142, -2.0, -2.0, 0.4000000134110451, -2.0, -2.0], "feature": [128, 107, -2, -2, 52, -2, -2], "classes": [0, 1, 2], "value": [[23.0, 16.0, 21.0], [20.0, 0.0, 17.0], [0.0, 0.0, 10.0], [20.0, 0.0, 7.0], [3.0, 16.0, 4.0], [3.0, 16.0, 0.0], [0.0, 0.0, 4.0]]}, {"children_left": [1, 2, -1, -1, 5, -1, -1], "children_right": [4, 3, -1, -1, 6, -1, -1], "threshold": [-0.5, -0.05000000074505806, -2.0, -2.0, -0.05000000074505806, -2.0, -2.0], "feature": [143, 102, -2, -2, 59, -2, -2], "classes": [0, 1, 2], "value": [[19.0, 26.0, 15.0], [19.0, 0.0, 11.0], [2.0, 0.0, 10.0], [17.0, 0.0, 1.0], [0.0, 26.0, 4.0], [0.0, 0.0, 4.0], [0.0, 26.0, 0.0]]}, {"children_left": [1, 2, -1, -1, 5, -1, -1], "children_right": [4, 3, -1, -1, 6, -1, -1], "threshold": [0.15000000223517418, 0.15000000223517418, -2.0, -2.0, 0.30000000447034836, -2.0, -2.0], "feature": [141, 102, -2, -2, 168, -2, -2], "classes": [0, 1, 2], "value": [[20.0, 17.0, 23.0], [17.0, 17.0, 4.0], [9.0, 17.0, 2.0], [8.0, 0.0, 2.0], [3.0, 0.0, 19.0], [1.0, 0.0, 19.0], [2.0, 0.0, 0.0]]}, {"children_left": [1, 2, -1, -1, 5, -1, -1], "children_right": [4, 3, -1, -1, 6, -1, -1], "threshold": [-0.550000011920929, -2.350000023841858, -2.0, -2.0, -0.30000000074505806, -2.0, -2.0], "feature": [78, 90, -2, -2, 134, -2, -2], "classes": [0, 1, 2], "value": [[15.0, 25.0, 20.0], [2.0, 0.0, 15.0], [2.0, 0.0, 0.0], [0.0, 0.0, 15.0], [13.0, 25.0, 5.0], [11.0, 0.0, 4.0], [2.0, 25.0, 1.0]]}, {"children_left": [1, 2, -1, -1, 5, -1, -1], "children_right": [4, 3, -1, -1, 6, -1, -1], "threshold": [-2.149999976158142, 0.2500000037252903, -2.0, -2.0, 0.15000000223517418, -2.0, -2.0], "feature": [125, 175, -2, -2, 48, -2, -2], "classes": [0, 1, 2], "value": [[24.0, 13.0, 23.0], [1.0, 0.0, 14.0], [0.0, 0.0, 14.0], [1.0, 0.0, 0.0], [23.0, 13.0, 9.0], [22.0, 13.0, 0.0], [1.0, 0.0, 9.0]]}, {"children_left": [1, 2, -1, -1, 5, -1, -1], "children_right": [4, 3, -1, -1, 6, -1, -1], "threshold": [10.200000286102295, -0.05000000074505806, -2.0, -2.0, 9.5, -2.0, -2.0], "feature": [182, 87, -2, -2, 155, -2, -2], "classes": [0, 1, 2], "value": [[21.0, 17.0, 22.0], [15.0, 1.0, 22.0], [1.0, 1.0, 22.0], [14.0, 0.0, 0.0], [6.0, 16.0, 0.0], [6.0, 0.0, 0.0], [0.0, 16.0, 0.0]]}, {"children_left": [1, 2, -1, -1, 5, -1, -1], "children_right": [4, 3, -1, -1, 6, -1, -1], "threshold": [13.150000095367432, 9.550000190734863, -2.0, -2.0, -0.6500000059604645, -2.0, -2.0], "feature": [47, 128, -2, -2, 189, -2, -2], "classes": [0, 1, 2], "value": [[20.0, 17.0, 23.0], [19.0, 17.0, 0.0], [12.0, 0.0, 0.0], [7.0, 17.0, 0.0], [1.0, 0.0, 23.0], [1.0, 0.0, 0.0], [0.0, 0.0, 23.0]]}, {"children_left": [1, 2, -1, -1, 5, -1, -1], "children_right": [4, 3, -1, -1, 6, -1, -1], "threshold": [0.20000000670552254, -2.450000047683716, -2.0, -2.0, -0.6500000059604645, -2.0, -2.0], "feature": [161, 116, -2, -2, 69, -2, -2], "classes": [0, 1, 2], "value": [[30.0, 16.0, 14.0], [29.0, 0.0, 12.0], [0.0, 0.0, 9.0], [29.0, 0.0, 3.0], [1.0, 16.0, 2.0], [1.0, 0.0, 2.0], [0.0, 16.0, 0.0]]}, {"children_left": [1, 2, -1, -1, 5, -1, -1], "children_right": [4, 3, -1, -1, 6, -1, -1], "threshold": [0.6500000059604645, 0.15000000223517418, -2.0, -2.0, -0.2500000074505806, -2.0, -2.0], "feature": [62, 174, -2, -2, 93, -2, -2], "classes": [0, 1, 2], "value": [[19.0, 25.0, 16.0], [6.0, 25.0, 2.0], [1.0, 25.0, 2.0], [5.0, 0.0, 0.0], [13.0, 0.0, 14.0], [0.0, 0.0, 10.0], [13.0, 0.0, 4.0]]}, {"children_left": [1, 2, -1, -1, 5, -1, -1], "children_right": [4, 3, -1, -1, 6, -1, -1], "threshold": [0.550000011920929, 0.15000000223517418, -2.0, -2.0, 16.300000190734863, -2.0, -2.0], "feature": [62, 95, -2, -2, 65, -2, -2], "classes": [0, 1, 2], "value": [[22.0, 19.0, 19.0], [4.0, 19.0, 4.0], [0.0, 19.0, 4.0], [4.0, 0.0, 0.0], [18.0, 0.0, 15.0], [18.0, 0.0, 4.0], [0.0, 0.0, 11.0]]}, {"children_left": [1, 2, -1, -1, 5, -1, -1], "children_right": [4, 3, -1, -1, 6, -1, -1], "threshold": [0.2500000074505806, 11.5, -2.0, -2.0, -0.3500000014901161, -2.0, -2.0], "feature": [197, 56, -2, -2, 58, -2, -2], "classes": [0, 1, 2], "value": [[14.0, 26.0, 20.0], [13.0, 4.0, 20.0], [9.0, 4.0, 0.0], [4.0, 0.0, 20.0], [1.0, 22.0, 0.0], [1.0, 0.0, 0.0], [0.0, 22.0, 0.0]]}, {"children_left": [1, -1, 3, -1, -1], "children_right": [2, -1, 4, -1, -1], "threshold": [6.050000190734863, -2.0, 0.45000001788139343, -2.0, -2.0], "feature": [2, -2, 71, -2, -2], "classes": [0, 1, 2], "value": [[18.0, 25.0, 17.0], [0.0, 0.0, 12.0], [18.0, 25.0, 5.0], [1.0, 23.0, 0.0], [17.0, 2.0, 5.0]]}, {"children_left": [1, -1, 3, -1, -1], "children_right": [2, -1, 4, -1, -1], "threshold": [-0.5999999940395355, -2.0, -0.05000000074505806, -2.0, -2.0], "feature": [78, -2, 197, -2, -2], "classes": [0, 1, 2], "value": [[19.0, 22.0, 19.0], [0.0, 0.0, 14.0], [19.0, 22.0, 5.0], [18.0, 1.0, 4.0], [1.0, 21.0, 1.0]]}, {"children_left": [1, -1, 3, -1, -1], "children_right": [2, -1, 4, -1, -1], "threshold": [7.5, -2.0, -0.550000011920929, -2.0, -2.0], "feature": [119, -2, 134, -2, -2], "classes": [0, 1, 2], "value": [[19.0, 21.0, 20.0], [0.0, 0.0, 13.0], [19.0, 21.0, 7.0], [14.0, 0.0, 6.0], [5.0, 21.0, 1.0]]}, {"children_left": [1, 2, -1, -1, 5, -1, -1], "children_right": [4, 3, -1, -1, 6, -1, -1], "threshold": [0.2500000074505806, -2.649999976158142, -2.0, -2.0, 0.15000000596046448, -2.0, -2.0], "feature": [197, 116, -2, -2, 179, -2, -2], "classes": [0, 1, 2], "value": [[21.0, 17.0, 22.0], [18.0, 2.0, 22.0], [0.0, 0.0, 15.0], [18.0, 2.0, 7.0], [3.0, 15.0, 0.0], [3.0, 0.0, 0.0], [0.0, 15.0, 0.0]]}, {"children_left": [1, -1, 3, -1, -1], "children_right": [2, -1, 4, -1, -1], "threshold": [-2.149999976158142, -2.0, 9.350000381469727, -2.0, -2.0], "feature": [107, -2, 128, -2, -2], "classes": [0, 1, 2], "value": [[20.0, 16.0, 24.0], [0.0, 0.0, 18.0], [20.0, 16.0, 6.0], [15.0, 0.0, 6.0], [5.0, 16.0, 0.0]]}, {"children_left": [1, -1, 3, -1, -1], "children_right": [2, -1, 4, -1, -1], "threshold": [8.5, -2.0, -1.050000011920929, -2.0, -2.0], "feature": [92, -2, 72, -2, -2], "classes": [0, 1, 2], "value": [[26.0, 12.0, 22.0], [0.0, 0.0, 12.0], [26.0, 12.0, 10.0], [1.0, 2.0, 7.0], [25.0, 10.0, 3.0]]}, {"children_left": [1, 2, -1, -1, 5, -1, -1], "children_right": [4, 3, -1, -1, 6, -1, -1], "threshold": [-0.2500000074505806, -0.15000000223517418, -2.0, -2.0, 0.15000000596046448, -2.0, -2.0], "feature": [197, 121, -2, -2, 188, -2, -2], "classes": [0, 1, 2], "value": [[20.0, 22.0, 18.0], [18.0, 1.0, 4.0], [1.0, 0.0, 3.0], [17.0, 1.0, 1.0], [2.0, 21.0, 14.0], [2.0, 0.0, 14.0], [0.0, 21.0, 0.0]]}, {"children_left": [1, 2, -1, -1, 5, -1, -1], "children_right": [4, 3, -1, -1, 6, -1, -1], "threshold": [9.349999904632568, -0.9500000178813934, -2.0, -2.0, 9.550000190734863, -2.0, -2.0], "feature": [110, 162, -2, -2, 191, -2, -2], "classes": [0, 1, 2], "value": [[14.0, 21.0, 25.0], [10.0, 0.0, 24.0], [4.0, 0.0, 0.0], [6.0, 0.0, 24.0], [4.0, 21.0, 1.0], [4.0, 0.0, 1.0], [0.0, 21.0, 0.0]]}, {"children_left": [1, 2, -1, -1, 5, -1, -1], "children_right": [4, 3, -1, -1, 6, -1, -1], "threshold": [-0.8000000007450581, 0.15000000223517418, -2.0, -2.0, 11.0, -2.0, -2.0], "feature": [134, 84, -2, -2, 119, -2, -2], "classes": [0, 1, 2], "value": [[19.0, 26.0, 15.0], [14.0, 0.0, 14.0], [5.0, 0.0, 14.0], [9.0, 0.0, 0.0], [5.0, 26.0, 1.0], [1.0, 26.0, 1.0], [4.0, 0.0, 0.0]]}, {"children_left": [1, 2, -1, -1, 5, -1, -1], "children_right": [4, 3, -1, -1, 6, -1, -1], "threshold": [10.099999904632568, -0.45000000298023224, -2.0, -2.0, 9.75, -2.0, -2.0], "feature": [155, 60, -2, -2, 191, -2, -2], "classes": [0, 1, 2], "value": [[19.0, 18.0, 23.0], [15.0, 0.0, 19.0], [2.0, 0.0, 15.0], [13.0, 0.0, 4.0], [4.0, 18.0, 4.0], [4.0, 0.0, 2.0], [0.0, 18.0, 2.0]]}, {"children_left": [1, 2, -1, -1, 5, -1, -1], "children_right": [4, 3, -1, -1, 6, -1, -1], "threshold": [9.949999809265137, -0.15000000223517418, -2.0, -2.0, 9.150000095367432, -2.0, -2.0], "feature": [155, 78, -2, -2, 137, -2, -2], "classes": [0, 1, 2], "value": [[15.0, 23.0, 22.0], [14.0, 0.0, 18.0], [4.0, 0.0, 16.0], [10.0, 0.0, 2.0], [1.0, 23.0, 4.0], [0.0, 0.0, 4.0], [1.0, 23.0, 0.0]]}, {"children_left": [1, 2, -1, -1, 5, -1, -1], "children_right": [4, 3, -1, -1, 6, -1, -1], "threshold": [9.650000095367432, -2.25, -2.0, -2.0, 10.050000190734863, -2.0, -2.0], "feature": [128, 125, -2, -2, 191, -2, -2], "classes": [0, 1, 2], "value": [[17.0, 21.0, 22.0], [14.0, 0.0, 18.0], [0.0, 0.0, 11.0], [14.0, 0.0, 7.0], [3.0, 21.0, 4.0], [3.0, 1.0, 4.0], [0.0, 20.0, 0.0]]}, {"children_left": [1, 2, -1, -1, 5, -1, -1], "children_right": [4, 3, -1, -1, 6, -1, -1], "threshold": [0.2500000074505806, -3.299999952316284, -2.0, -2.0, -0.5999999940395355, -2.0, -2.0], "feature": [197, 35, -2, -2, 42, -2, -2], "classes": [0, 1, 2], "value": [[23.0, 18.0, 19.0], [22.0, 2.0, 19.0], [1.0, 0.0, 13.0], [21.0, 2.0, 6.0], [1.0, 16.0, 0.0], [1.0, 0.0, 0.0], [0.0, 16.0, 0.0]]}, {"children_left": [1, 2, -1, -1, 5, -1, -1], "children_right": [4, 3, -1, -1, 6, -1, -1], "threshold": [-0.05000000074505806, 0.550000011920929, -2.0, -2.0, -2.25, -2.0, -2.0], "feature": [197, 52, -2, -2, 26, -2, -2], "classes": [0, 1, 2], "value": [[17.0, 28.0, 15.0], [17.0, 1.0, 8.0], [17.0, 1.0, 4.0], [0.0, 0.0, 4.0], [0.0, 27.0, 7.0], [0.0, 0.0, 6.0], [0.0, 27.0, 1.0]]}, {"children_left": [1, -1, 3, -1, -1], "children_right": [2, -1, 4, -1, -1], "threshold": [-4.549999952316284, -2.0, -0.6500000059604645, -2.0, -2.0], "feature": [17, -2, 116, -2, -2], "classes": [0, 1, 2], "value": [[23.0, 19.0, 18.0], [0.0, 0.0, 14.0], [23.0, 19.0, 4.0], [18.0, 0.0, 2.0], [5.0, 19.0, 2.0]]}, {"children_left": [1, 2, -1, -1, 5, -1, -1], "children_right": [4, 3, -1, -1, 6, -1, -1], "threshold": [10.200000286102295, -0.800000011920929, -2.0, -2.0, 8.950000286102295, -2.0, -2.0], "feature": [182, 0, -2, -2, 137, -2, -2], "classes": [0, 1, 2], "value": [[17.0, 22.0, 21.0], [14.0, 3.0, 21.0], [9.0, 3.0, 0.0], [5.0, 0.0, 21.0], [3.0, 19.0, 0.0], [3.0, 0.0, 0.0], [0.0, 19.0, 0.0]]}, {"children_left": [1, 2, -1, -1, 5, -1, -1], "children_right": [4, 3, -1, -1, 6, -1, -1], "threshold": [0.15000000223517418, -0.10000000149011612, -2.0, -2.0, 0.25, -2.0, -2.0], "feature": [0, 197, -2, -2, 186, -2, -2], "classes": [0, 1, 2], "value": [[22.0, 18.0, 20.0], [21.0, 18.0, 4.0], [19.0, 1.0, 3.0], [2.0, 17.0, 1.0], [1.0, 0.0, 16.0], [0.0, 0.0, 16.0], [1.0, 0.0, 0.0]]}, {"children_left": [1, -1, 3, -1, -1], "children_right": [2, -1, 4, -1, -1], "threshold": [-4.549999952316284, -2.0, 0.20000000670552254, -2.0, -2.0], "feature": [17, -2, 179, -2, -2], "classes": [0, 1, 2], "value": [[20.0, 21.0, 19.0], [0.0, 0.0, 15.0], [20.0, 21.0, 4.0], [18.0, 0.0, 2.0], [2.0, 21.0, 2.0]]}, {"children_left": [1, 2, -1, -1, 5, -1, -1], "children_right": [4, 3, -1, -1, 6, -1, -1], "threshold": [11.849999904632568, 1.300000011920929, -2.0, -2.0, -0.45000000298023224, -2.0, -2.0], "feature": [56, 98, -2, -2, 141, -2, -2], "classes": [0, 1, 2], "value": [[13.0, 25.0, 22.0], [9.0, 25.0, 3.0], [3.0, 25.0, 2.0], [6.0, 0.0, 1.0], [4.0, 0.0, 19.0], [2.0, 0.0, 0.0], [2.0, 0.0, 19.0]]}, {"children_left": [1, 2, -1, -1, 5, -1, -1], "children_right": [4, 3, -1, -1, 6, -1, -1], "threshold": [10.150000095367432, 0.05000000074505806, -2.0, -2.0, 8.950000286102295, -2.0, -2.0], "feature": [173, 73, -2, -2, 146, -2, -2], "classes": [0, 1, 2], "value": [[26.0, 17.0, 17.0], [24.0, 1.0, 14.0], [23.0, 1.0, 4.0], [1.0, 0.0, 10.0], [2.0, 16.0, 3.0], [2.0, 0.0, 3.0], [0.0, 16.0, 0.0]]}, {"children_left": [1, 2, -1, -1, 5, -1, -1], "children_right": [4, 3, -1, -1, 6, -1, -1], "threshold": [0.15000000223517418, 7.5, -2.0, -2.0, 9.700000286102295, -2.0, -2.0], "feature": [161, 119, -2, -2, 146, -2, -2], "classes": [0, 1, 2], "value": [[19.0, 19.0, 22.0], [17.0, 1.0, 19.0], [0.0, 0.0, 14.0], [17.0, 1.0, 5.0], [2.0, 18.0, 3.0], [1.0, 0.0, 3.0], [1.0, 18.0, 0.0]]}, {"children_left": [1, 2, -1, -1, 5, -1, -1], "children_right": [4, 3, -1, -1, 6, -1, -1], "threshold": [0.45000001788139343, -1.649999976158142, -2.0, -2.0, 4.099999904632568, -2.0, -2.0], "feature": [71, 53, -2, -2, 53, -2, -2], "classes": [0, 1, 2], "value": [[18.0, 22.0, 20.0], [4.0, 22.0, 2.0], [4.0, 0.0, 0.0], [0.0, 22.0, 2.0], [14.0, 0.0, 18.0], [12.0, 0.0, 3.0], [2.0, 0.0, 15.0]]}, {"children_left": [1, 2, -1, -1, 5, -1, -1], "children_right": [4, 3, -1, -1, 6, -1, -1], "threshold": [9.550000190734863, 12.449999809265137, -2.0, -2.0, -0.05000000074505806, -2.0, -2.0], "feature": [128, 56, -2, -2, 197, -2, -2], "classes": [0, 1, 2], "value": [[16.0, 23.0, 21.0], [10.0, 0.0, 18.0], [6.0, 0.0, 2.0], [4.0, 0.0, 16.0], [6.0, 23.0, 3.0], [6.0, 0.0, 2.0], [0.0, 23.0, 1.0]]}, {"children_left": [1, 2, -1, -1, 5, -1, -1], "children_right": [4, 3, -1, -1, 6, -1, -1], "threshold": [3.649999976158142, 0.8500000238418579, -2.0, -2.0, 0.30000000447034836, -2.0, -2.0], "feature": [53, 80, -2, -2, 36, -2, -2], "classes": [0, 1, 2], "value": [[21.0, 22.0, 17.0], [19.0, 22.0, 2.0], [2.0, 22.0, 0.0], [17.0, 0.0, 2.0], [2.0, 0.0, 15.0], [0.0, 0.0, 14.0], [2.0, 0.0, 1.0]]}, {"children_left": [1, 2, -1, -1, 5, -1, -1], "children_right": [4, 3, -1, -1, 6, -1, -1], "threshold": [0.2500000074505806, -0.45000000298023224, -2.0, -2.0, -0.3500000089406967, -2.0, -2.0], "feature": [197, 197, -2, -2, 75, -2, -2], "classes": [0, 1, 2], "value": [[20.0, 17.0, 23.0], [17.0, 1.0, 23.0], [13.0, 0.0, 2.0], [4.0, 1.0, 21.0], [3.0, 16.0, 0.0], [3.0, 0.0, 0.0], [0.0, 16.0, 0.0]]}, {"children_left": [1, 2, -1, -1, 5, -1, -1], "children_right": [4, 3, -1, -1, 6, -1, -1], "threshold": [-0.15000000223517418, -0.550000011920929, -2.0, -2.0, -0.25, -2.0, -2.0], "feature": [93, 61, -2, -2, 134, -2, -2], "classes": [0, 1, 2], "value": [[15.0, 19.0, 26.0], [1.0, 1.0, 18.0], [1.0, 0.0, 0.0], [0.0, 1.0, 18.0], [14.0, 18.0, 8.0], [11.0, 0.0, 6.0], [3.0, 18.0, 2.0]]}, {"children_left": [1, 2, -1, -1, 5, -1, -1], "children_right": [4, 3, -1, -1, 6, -1, -1], "threshold": [0.15000000223517418, -1.9000000357627869, -2.0, -2.0, -1.5, -2.0, -2.0], "feature": [62, 62, -2, -2, 152, -2, -2], "classes": [0, 1, 2], "value": [[20.0, 21.0, 19.0], [7.0, 20.0, 0.0], [7.0, 0.0, 0.0], [0.0, 20.0, 0.0], [13.0, 1.0, 19.0], [12.0, 0.0, 5.0], [1.0, 1.0, 14.0]]}, {"children_left": [1, -1, 3, -1, -1], "children_right": [2, -1, 4, -1, -1], "threshold": [6.050000190734863, -2.0, 10.549999713897705, -2.0, -2.0], "feature": [2, -2, 65, -2, -2], "classes": [0, 1, 2], "value": [[21.0, 19.0, 20.0], [0.0, 0.0, 9.0], [21.0, 19.0, 11.0], [5.0, 19.0, 0.0], [16.0, 0.0, 11.0]]}, {"children_left": [1, 2, -1, -1, 5, -1, -1], "children_right": [4, 3, -1, -1, 6, -1, -1], "threshold": [3.299999952316284, 9.849999904632568, -2.0, -2.0, 1.050000011920929, -2.0, -2.0], "feature": [53, 155, -2, -2, 150, -2, -2], "classes": [0, 1, 2], "value": [[18.0, 21.0, 21.0], [16.0, 21.0, 1.0], [16.0, 0.0, 1.0], [0.0, 21.0, 0.0], [2.0, 0.0, 20.0], [1.0, 0.0, 20.0], [1.0, 0.0, 0.0]]}, {"children_left": [1, 2, -1, -1, 5, -1, -1], "children_right": [4, 3, -1, -1, 6, -1, -1], "threshold": [9.550000190734863, -0.75, -2.0, -2.0, 9.799999713897705, -2.0, -2.0], "feature": [119, 171, -2, -2, 164, -2, -2], "classes": [0, 1, 2], "value": [[25.0, 18.0, 17.0], [19.0, 0.0, 14.0], [10.0, 0.0, 0.0], [9.0, 0.0, 14.0], [6.0, 18.0, 3.0], [4.0, 0.0, 1.0], [2.0, 18.0, 2.0]]}, {"children_left": [1, 2, -1, -1, 5, -1, -1], "children_right": [4, 3, -1, -1, 6, -1, -1], "threshold": [10.099999904632568, 0.9000000059604645, -2.0, -2.0, 0.44999998807907104, -2.0, -2.0], "feature": [38, 80, -2, -2, 186, -2, -2], "classes": [0, 1, 2], "value": [[18.0, 19.0, 23.0], [15.0, 19.0, 6.0], [2.0, 19.0, 0.0], [13.0, 0.0, 6.0], [3.0, 0.0, 17.0], [1.0, 0.0, 17.0], [2.0, 0.0, 0.0]]}, {"children_left": [1, 2, -1, -1, 5, -1, -1], "children_right": [4, 3, -1, -1, 6, -1, -1], "threshold": [10.050000190734863, -1.6500000357627869, -2.0, -2.0, 1.4500000178813934, -2.0, -2.0], "feature": [155, 72, -2, -2, 80, -2, -2], "classes": [0, 1, 2], "value": [[20.0, 19.0, 21.0], [19.0, 0.0, 16.0], [0.0, 0.0, 11.0], [19.0, 0.0, 5.0], [1.0, 19.0, 5.0], [1.0, 19.0, 1.0], [0.0, 0.0, 4.0]]}, {"children_left": [1, -1, 3, -1, -1], "children_right": [2, -1, 4, -1, -1], "threshold": [-4.5, -2.0, 9.550000190734863, -2.0, -2.0], "feature": [17, -2, 146, -2, -2], "classes": [0, 1, 2], "value": [[23.0, 13.0, 24.0], [0.0, 0.0, 18.0], [23.0, 13.0, 6.0], [20.0, 0.0, 3.0], [3.0, 13.0, 3.0]]}, {"children_left": [1, 2, -1, -1, 5, -1, -1], "children_right": [4, 3, -1, -1, 6, -1, -1], "threshold": [-0.05000000074505806, 15.900000095367432, -2.0, -2.0, -1.8500000536441803, -2.0, -2.0], "feature": [143, 74, -2, -2, 125, -2, -2], "classes": [0, 1, 2], "value": [[17.0, 17.0, 26.0], [15.0, 0.0, 22.0], [14.0, 0.0, 8.0], [1.0, 0.0, 14.0], [2.0, 17.0, 4.0], [0.0, 0.0, 4.0], [2.0, 17.0, 0.0]]}, {"children_left": [1, 2, -1, -1, 5, -1, -1], "children_right": [4, 3, -1, -1, 6, -1, -1], "threshold": [0.20000000670552254, 4.75, -2.0, -2.0, -0.850000012665987, -2.0, -2.0], "feature": [179, 53, -2, -2, 134, -2, -2], "classes": [0, 1, 2], "value": [[15.0, 23.0, 22.0], [12.0, 0.0, 20.0], [12.0, 0.0, 1.0], [0.0, 0.0, 19.0], [3.0, 23.0, 2.0], [3.0, 0.0, 2.0], [0.0, 23.0, 0.0]]}, {"children_left": [1, 2, -1, -1, 5, -1, -1], "children_right": [4, 3, -1, -1, 6, -1, -1], "threshold": [0.30000000447034836, -0.05000000074505806, -2.0, -2.0, 7.700000047683716, -2.0, -2.0], "feature": [71, 188, -2, -2, 137, -2, -2], "classes": [0, 1, 2], "value": [[19.0, 19.0, 22.0], [6.0, 18.0, 3.0], [3.0, 0.0, 3.0], [3.0, 18.0, 0.0], [13.0, 1.0, 19.0], [0.0, 0.0, 13.0], [13.0, 1.0, 6.0]]}, {"children_left": [1, 2, -1, -1, 5, -1, -1], "children_right": [4, 3, -1, -1, 6, -1, -1], "threshold": [-0.05000000074505806, 8.75, -2.0, -2.0, -1.600000023841858, -2.0, -2.0], "feature": [143, 164, -2, -2, 116, -2, -2], "classes": [0, 1, 2], "value": [[18.0, 26.0, 16.0], [15.0, 0.0, 13.0], [12.0, 0.0, 0.0], [3.0, 0.0, 13.0], [3.0, 26.0, 3.0], [0.0, 0.0, 3.0], [3.0, 26.0, 0.0]]}, {"children_left": [1, 2, -1, -1, 5, -1, -1], "children_right": [4, 3, -1, -1, 6, -1, -1], "threshold": [0.6500000059604645, 0.15000000223517418, -2.0, -2.0, -0.949999988079071, -2.0, -2.0], "feature": [161, 40, -2, -2, 143, -2, -2], "classes": [0, 1, 2], "value": [[22.0, 19.0, 19.0], [20.0, 2.0, 19.0], [19.0, 1.0, 6.0], [1.0, 1.0, 13.0], [2.0, 17.0, 0.0], [1.0, 0.0, 0.0], [1.0, 17.0, 0.0]]}, {"children_left": [1, 2, -1, -1, 5, -1, -1], "children_right": [4, 3, -1, -1, 6, -1, -1], "threshold": [9.550000190734863, -1.25, -2.0, -2.0, 1.649999976158142, -2.0, -2.0], "feature": [119, 87, -2, -2, 125, -2, -2], "classes": [0, 1, 2], "value": [[23.0, 28.0, 9.0], [15.0, 0.0, 8.0], [0.0, 0.0, 4.0], [15.0, 0.0, 4.0], [8.0, 28.0, 1.0], [3.0, 28.0, 0.0], [5.0, 0.0, 1.0]]}, {"children_left": [1, 2, -1, -1, 5, -1, -1], "children_right": [4, 3, -1, -1, 6, -1, -1], "threshold": [10.050000190734863, -1.350000023841858, -2.0, -2.0, -0.15000000596046448, -2.0, -2.0], "feature": [191, 170, -2, -2, 179, -2, -2], "classes": [0, 1, 2], "value": [[22.0, 17.0, 21.0], [17.0, 1.0, 21.0], [12.0, 0.0, 1.0], [5.0, 1.0, 20.0], [5.0, 16.0, 0.0], [5.0, 0.0, 0.0], [0.0, 16.0, 0.0]]}, {"children_left": [1, 2, -1, -1, 5, -1, -1], "children_right": [4, 3, -1, -1, 6, -1, -1], "threshold": [9.400000095367432, -0.5499999970197678, -2.0, -2.0, -0.05000000074505806, -2.0, -2.0], "feature": [92, 133, -2, -2, 24, -2, -2], "classes": [0, 1, 2], "value": [[20.0, 20.0, 20.0], [1.0, 0.0, 12.0], [1.0, 0.0, 0.0], [0.0, 0.0, 12.0], [19.0, 20.0, 8.0], [6.0, 19.0, 4.0], [13.0, 1.0, 4.0]]}, {"children_left": [1, 2, -1, -1, 5, -1, -1], "children_right": [4, 3, -1, -1, 6, -1, -1], "threshold": [10.349999904632568, -0.350000012665987, -2.0, -2.0, -0.05000000074505806, -2.0, -2.0], "feature": [65, 21, -2, -2, 16, -2, -2], "classes": [0, 1, 2], "value": [[19.0, 23.0, 18.0], [1.0, 23.0, 2.0], [0.0, 0.0, 2.0], [1.0, 23.0, 0.0], [18.0, 0.0, 16.0], [3.0, 0.0, 13.0], [15.0, 0.0, 3.0]]}, {"children_left": [1, 2, -1, -1, 5, -1, -1], "children_right": [4, 3, -1, -1, 6, -1, -1], "threshold": [11.400000095367432, 0.45000000298023224, -2.0, -2.0, -0.9000000059604645, -2.0, -2.0], "feature": [83, 188, -2, -2, 63, -2, -2], "classes": [0, 1, 2], "value": [[17.0, 22.0, 21.0], [3.0, 22.0, 9.0], [3.0, 0.0, 9.0], [0.0, 22.0, 0.0], [14.0, 0.0, 12.0], [3.0, 0.0, 11.0], [11.0, 0.0, 1.0]]}, {"children_left": [1, 2, -1, -1, 5, -1, -1], "children_right": [4, 3, -1, -1, 6, -1, -1], "threshold": [12.25, -1.0, -2.0, -2.0, -0.15000000223517418, -2.0, -2.0], "feature": [56, 116, -2, -2, 175, -2, -2], "classes": [0, 1, 2], "value": [[7.0, 31.0, 22.0], [6.0, 31.0, 1.0], [4.0, 0.0, 0.0], [2.0, 31.0, 1.0], [1.0, 0.0, 21.0], [1.0, 0.0, 3.0], [0.0, 0.0, 18.0]]}, {"children_left": [1, 2, -1, -1, 5, -1, -1], "children_right": [4, 3, -1, -1, 6, -1, -1], "threshold": [10.0, -0.05000000074505806, -2.0, -2.0, 9.050000190734863, -2.0, -2.0], "feature": [155, 140, -2, -2, 137, -2, -2], "classes": [0, 1, 2], "value": [[18.0, 24.0, 18.0], [17.0, 0.0, 16.0], [2.0, 0.0, 12.0], [15.0, 0.0, 4.0], [1.0, 24.0, 2.0], [0.0, 0.0, 2.0], [1.0, 24.0, 0.0]]}, {"children_left": [1, 2, -1, -1, 5, -1, -1], "children_right": [4, 3, -1, -1, 6, -1, -1], "threshold": [0.2500000074505806, -0.45000001788139343, -2.0, -2.0, 12.799999713897705, -2.0, -2.0], "feature": [179, 197, -2, -2, 83, -2, -2], "classes": [0, 1, 2], "value": [[21.0, 19.0, 20.0], [20.0, 0.0, 15.0], [14.0, 0.0, 0.0], [6.0, 0.0, 15.0], [1.0, 19.0, 5.0], [0.0, 19.0, 0.0], [1.0, 0.0, 5.0]]}, {"children_left": [1, 2, -1, -1, 5, -1, -1], "children_right": [4, 3, -1, -1, 6, -1, -1], "threshold": [6.900000095367432, 0.15000000223517418, -2.0, -2.0, -0.3500000089406967, -2.0, -2.0], "feature": [2, 174, -2, -2, 0, -2, -2], "classes": [0, 1, 2], "value": [[16.0, 24.0, 20.0], [1.0, 0.0, 15.0], [0.0, 0.0, 15.0], [1.0, 0.0, 0.0], [15.0, 24.0, 5.0], [3.0, 24.0, 0.0], [12.0, 0.0, 5.0]]}, {"children_left": [1, 2, -1, -1, 5, -1, -1], "children_right": [4, 3, -1, -1, 6, -1, -1], "threshold": [-1.300000011920929, -0.3500000014901161, -2.0, -2.0, 0.45000001788139343, -2.0, -2.0], "feature": [63, 151, -2, -2, 71, -2, -2], "classes": [0, 1, 2], "value": [[20.0, 12.0, 28.0], [2.0, 0.0, 19.0], [1.0, 0.0, 0.0], [1.0, 0.0, 19.0], [18.0, 12.0, 9.0], [3.0, 12.0, 2.0], [15.0, 0.0, 7.0]]}, {"children_left": [1, 2, -1, -1, 5, -1, -1], "children_right": [4, 3, -1, -1, 6, -1, -1], "threshold": [9.700000286102295, 0.15000000223517418, -2.0, -2.0, 9.299999713897705, -2.0, -2.0], "feature": [146, 66, -2, -2, 92, -2, -2], "classes": [0, 1, 2], "value": [[18.0, 21.0, 21.0], [14.0, 0.0, 17.0], [14.0, 0.0, 7.0], [0.0, 0.0, 10.0], [4.0, 21.0, 4.0], [2.0, 0.0, 4.0], [2.0, 21.0, 0.0]]}, {"children_left": [1, -1, 3, -1, -1], "children_right": [2, -1, 4, -1, -1], "threshold": [7.299999952316284, -2.0, 9.849999904632568, -2.0, -2.0], "feature": [110, -2, 155, -2, -2], "classes": [0, 1, 2], "value": [[30.0, 11.0, 19.0], [0.0, 0.0, 13.0], [30.0, 11.0, 6.0], [27.0, 0.0, 6.0], [3.0, 11.0, 0.0]]}, {"children_left": [1, 2, -1, -1, 5, -1, -1], "children_right": [4, 3, -1, -1, 6, -1, -1], "threshold": [0.8499999940395355, -2.649999976158142, -2.0, -2.0, 0.30000000074505806, -2.0, -2.0], "feature": [170, 116, -2, -2, 6, -2, -2], "classes": [0, 1, 2], "value": [[17.0, 24.0, 19.0], [16.0, 3.0, 19.0], [0.0, 0.0, 12.0], [16.0, 3.0, 7.0], [1.0, 21.0, 0.0], [0.0, 21.0, 0.0], [1.0, 0.0, 0.0]]}, {"children_left": [1, 2, -1, -1, 5, -1, -1], "children_right": [4, 3, -1, -1, 6, -1, -1], "threshold": [4.3999998569488525, -0.6500000059604645, -2.0, -2.0, 0.3500000089406967, -2.0, -2.0], "feature": [62, 116, -2, -2, 169, -2, -2], "classes": [0, 1, 2], "value": [[25.0, 13.0, 22.0], [22.0, 13.0, 4.0], [17.0, 0.0, 1.0], [5.0, 13.0, 3.0], [3.0, 0.0, 18.0], [1.0, 0.0, 18.0], [2.0, 0.0, 0.0]]}, {"children_left": [1, 2, -1, -1, 5, -1, -1], "children_right": [4, 3, -1, -1, 6, -1, -1], "threshold": [0.05000000074505806, 12.5, -2.0, -2.0, 9.25, -2.0, -2.0], "feature": [188, 47, -2, -2, 137, -2, -2], "classes": [0, 1, 2], "value": [[22.0, 22.0, 16.0], [15.0, 0.0, 16.0], [15.0, 0.0, 3.0], [0.0, 0.0, 13.0], [7.0, 22.0, 0.0], [7.0, 0.0, 0.0], [0.0, 22.0, 0.0]]}, {"children_left": [1, 2, -1, -1, 5, -1, -1], "children_right": [4, 3, -1, -1, 6, -1, -1], "threshold": [0.10000000149011612, -0.44999998807907104, -2.0, -2.0, 5.1000001430511475, -2.0, -2.0], "feature": [62, 197, -2, -2, 20, -2, -2], "classes": [0, 1, 2], "value": [[29.0, 15.0, 16.0], [7.0, 15.0, 0.0], [7.0, 0.0, 0.0], [0.0, 15.0, 0.0], [22.0, 0.0, 16.0], [0.0, 0.0, 8.0], [22.0, 0.0, 8.0]]}, {"children_left": [1, 2, -1, -1, 5, -1, -1], "children_right": [4, 3, -1, -1, 6, -1, -1], "threshold": [0.3500000089406967, 9.550000190734863, -2.0, -2.0, 0.05000000074505806, -2.0, -2.0], "feature": [71, 182, -2, -2, 175, -2, -2], "classes": [0, 1, 2], "value": [[25.0, 18.0, 17.0], [4.0, 18.0, 3.0], [3.0, 0.0, 3.0], [1.0, 18.0, 0.0], [21.0, 0.0, 14.0], [8.0, 0.0, 12.0], [13.0, 0.0, 2.0]]}, {"children_left": [1, 2, -1, -1, 5, -1, -1], "children_right": [4, 3, -1, -1, 6, -1, -1], "threshold": [0.550000011920929, 11.0, -2.0, -2.0, 10.400000095367432, -2.0, -2.0], "feature": [62, 110, -2, -2, 182, -2, -2], "classes": [0, 1, 2], "value": [[20.0, 20.0, 20.0], [5.0, 20.0, 3.0], [0.0, 19.0, 3.0], [5.0, 1.0, 0.0], [15.0, 0.0, 17.0], [7.0, 0.0, 17.0], [8.0, 0.0, 0.0]]}, {"children_left": [1, 2, -1, -1, 5, -1, -1], "children_right": [4, 3, -1, -1, 6, -1, -1], "threshold": [-0.15000000223517418, -0.45000001788139343, -2.0, -2.0, 11.25, -2.0, -2.0], "feature": [161, 78, -2, -2, 47, -2, -2], "classes": [0, 1, 2], "value": [[13.0, 22.0, 25.0], [11.0, 0.0, 22.0], [0.0, 0.0, 14.0], [11.0, 0.0, 8.0], [2.0, 22.0, 3.0], [1.0, 22.0, 0.0], [1.0, 0.0, 3.0]]}, {"children_left": [1, 2, -1, -1, 5, -1, -1], "children_right": [4, 3, -1, -1, 6, -1, -1], "threshold": [9.75, 3.649999976158142, -2.0, -2.0, -0.30000000074505806, -2.0, -2.0], "feature": [128, 53, -2, -2, 161, -2, -2], "classes": [0, 1, 2], "value": [[19.0, 19.0, 22.0], [14.0, 0.0, 21.0], [13.0, 0.0, 2.0], [1.0, 0.0, 19.0], [5.0, 19.0, 1.0], [4.0, 0.0, 1.0], [1.0, 19.0, 0.0]]}, {"children_left": [1, 2, -1, -1, 5, -1, -1], "children_right": [4, 3, -1, -1, 6, -1, -1], "threshold": [10.150000095367432, -0.05000000074505806, -2.0, -2.0, 9.299999713897705, -2.0, -2.0], "feature": [182, 195, -2, -2, 155, -2, -2], "classes": [0, 1, 2], "value": [[15.0, 25.0, 20.0], [11.0, 0.0, 20.0], [2.0, 0.0, 20.0], [9.0, 0.0, 0.0], [4.0, 25.0, 0.0], [4.0, 0.0, 0.0], [0.0, 25.0, 0.0]]}, {"children_left": [1, 2, -1, -1, 5, -1, -1], "children_right": [4, 3, -1, -1, 6, -1, -1], "threshold": [-0.05000000074505806, -0.45000000298023224, -2.0, -2.0, -0.550000011920929, -2.0, -2.0], "feature": [143, 197, -2, -2, 69, -2, -2], "classes": [0, 1, 2], "value": [[13.0, 20.0, 27.0], [12.0, 0.0, 22.0], [9.0, 0.0, 0.0], [3.0, 0.0, 22.0], [1.0, 20.0, 5.0], [1.0, 0.0, 5.0], [0.0, 20.0, 0.0]]}, {"children_left": [1, 2, -1, -1, 5, -1, -1], "children_right": [4, 3, -1, -1, 6, -1, -1], "threshold": [0.3500000089406967, 3.8000000715255737, -2.0, -2.0, -1.050000011920929, -2.0, -2.0], "feature": [71, 143, -2, -2, 72, -2, -2], "classes": [0, 1, 2], "value": [[19.0, 20.0, 21.0], [3.0, 19.0, 1.0], [0.0, 19.0, 1.0], [3.0, 0.0, 0.0], [16.0, 1.0, 20.0], [0.0, 0.0, 15.0], [16.0, 1.0, 5.0]]}, {"children_left": [1, -1, 3, -1, -1], "children_right": [2, -1, 4, -1, -1], "threshold": [5.1000001430511475, -2.0, 9.050000190734863, -2.0, -2.0], "feature": [20, -2, 128, -2, -2], "classes": [0, 1, 2], "value": [[24.0, 17.0, 19.0], [0.0, 0.0, 11.0], [24.0, 17.0, 8.0], [19.0, 0.0, 7.0], [5.0, 17.0, 1.0]]}, {"children_left": [1, 2, -1, -1, 5, -1, -1], "children_right": [4, 3, -1, -1, 6, -1, -1], "threshold": [1.100000023841858, -0.550000011920929, -2.0, -2.0, 4.049999952316284, -2.0, -2.0], "feature": [71, 143, -2, -2, 53, -2, -2], "classes": [0, 1, 2], "value": [[14.0, 20.0, 26.0], [2.0, 20.0, 6.0], [1.0, 0.0, 6.0], [1.0, 20.0, 0.0], [12.0, 0.0, 20.0], [11.0, 0.0, 1.0], [1.0, 0.0, 19.0]]}, {"children_left": [1, 2, -1, -1, -1], "children_right": [4, 3, -1, -1, -1], "threshold": [12.5, -0.30000000074505806, -2.0, -2.0, -2.0], "feature": [47, 161, -2, -2, -2], "classes": [0, 1, 2], "value": [[24.0, 15.0, 21.0], [24.0, 15.0, 2.0], [20.0, 0.0, 2.0], [4.0, 15.0, 0.0], [0.0, 0.0, 19.0]]}, {"children_left": [1, 2, -1, -1, 5, -1, -1], "children_right": [4, 3, -1, -1, 6, -1, -1], "threshold": [-1.149999976158142, -0.6500000059604645, -2.0, -2.0, 9.450000286102295, -2.0, -2.0], "feature": [152, 145, -2, -2, 92, -2, -2], "classes": [0, 1, 2], "value": [[24.0, 22.0, 14.0], [21.0, 0.0, 3.0], [0.0, 0.0, 3.0], [21.0, 0.0, 0.0], [3.0, 22.0, 11.0], [0.0, 0.0, 9.0], [3.0, 22.0, 2.0]]}]}