{"classes_": [0, 1, 2, 3, 4], "dtrees": [{"children_left": [1, 2, -1, -1, 5, -1, -1], "children_right": [4, 3, -1, -1, 6, -1, -1], "threshold": [10.449999809265137, 0.15000000223517418, -2.0, -2.0, -0.2499999925494194, -2.0, -2.0], "feature": [128, 81, -2, -2, 126, -2, -2], "classes": [0, 1, 2, 3, 4], "value": [[10.0, 0.0, 1.0, 13.0, 11.0], [1.0, 0.0, 1.0, 13.0, 1.0], [1.0, 0.0, 1.0, 0.0, 1.0], [0.0, 0.0, 0.0, 13.0, 0.0], [9.0, 0.0, 0.0, 0.0, 10.0], [0.0, 0.0, 0.0, 0.0, 8.0], [9.0, 0.0, 0.0, 0.0, 2.0]]}, {"children_left": [1, 2, -1, -1, 5, -1, -1], "children_right": [4, 3, -1, -1, 6, -1, -1], "threshold": [7.949999809265137, -0.05000000074505806, -2.0, -2.0, -0.05000000074505806, -2.0, -2.0], "feature": [137, 167, -2, -2, 79, -2, -2], "classes": [0, 1, 2, 3, 4], "value": [[6.0, 0.0, 1.0, 17.0, 11.0], [1.0, 0.0, 1.0, 0.0, 8.0], [1.0, 0.0, 1.0, 0.0, 0.0], [0.0, 0.0, 0.0, 0.0, 8.0], [5.0, 0.0, 0.0, 17.0, 3.0], [0.0, 0.0, 0.0, 17.0, 3.0], [5.0, 0.0, 0.0, 0.0, 0.0]]}, {"children_left": [1, 2, -1, -1, 5, -1, -1], "children_right": [4, 3, -1, -1, 6, -1, -1], "threshold": [-0.45000000298023224, 0.10000000149011612, -2.0, -2.0, -0.10000000149011612, -2.0, -2.0], "feature": [1, 28, -2, -2, 108, -2, -2], "classes": [0, 1, 2, 3, 4], "value": [[9.0, 2.0, 0.0, 11.0, 13.0], [0.0, 2.0, 0.0, 11.0, 0.0], [0.0, 0.0, 0.0, 11.0, 0.0], [0.0, 2.0, 0.0, 0.0, 0.0], [9.0, 0.0, 0.0, 0.0, 13.0], [0.0, 0.0, 0.0, 0.0, 13.0], [9.0, 0.0, 0.0, 0.0, 0.0]]}, {"children_left": [1, 2, -1, -1, 5, -1, -1], "children_right": [4, 3, -1, -1, 6, -1, -1], "threshold": [-0.15000000223517418, -1.0499999895691872, -2.0, -2.0, 0.05000000074505806, -2.0, -2.0], "feature": [166, 27, -2, -2, 3, -2, -2], "classes": [0, 1, 2, 3, 4], "value": [[16.0, 2.0, 0.0, 8.0, 9.0], [0.0, 2.0, 0.0, 1.0, 9.0], [0.0, 2.0, 0.0, 0.0, 0.0], [0.0, 0.0, 0.0, 1.0, 9.0], [16.0, 0.0, 0.0, 7.0, 0.0], [16.0, 0.0, 0.0, 2.0, 0.0], [0.0, 0.0, 0.0, 5.0, 0.0]]}, {"children_left": [1, 2, -1, -1, -1], "children_right": [4, 3, -1, -1, -1], "threshold": [15.799999713897705, -0.3500000089406967, -2.0, -2.0, -2.0], "feature": [110, 64, -2, -2, -2], "classes": [0, 1, 2, 3, 4], "value": [[10.0, 1.0, 2.0, 13.0, 9.0], [10.0, 1.0, 2.0, 13.0, 0.0], [1.0, 0.0, 0.0, 11.0, 0.0], [9.0, 1.0, 2.0, 2.0, 0.0], [0.0, 0.0, 0.0, 0.0, 9.0]]}, {"children_left": [1, 2, -1, -1, 5, -1, -1], "children_right": [4, 3, -1, -1, 6, -1, -1], "threshold": [-0.45000000298023224, -0.45000000298023224, -2.0, -2.0, -0.30000000447034836, -2.0, -2.0], "feature": [172, 133, -2, -2, 91, -2, -2], "classes": [0, 1, 2, 3, 4], "value": [[9.0, 1.0, 1.0, 12.0, 12.0], [0.0, 1.0, 0.0, 11.0, 0.0], [0.0, 1.0, 0.0, 0.0, 0.0], [0.0, 0.0, 0.0, 11.0, 0.0], [9.0, 0.0, 1.0, 1.0, 12.0], [0.0, 0.0, 1.0, 1.0, 9.0], [9.0, 0.0, 0.0, 0.0, 3.0]]}, {"children_left": [1, -1, 3, -1, -1], "children_right": [2, -1, 4, -1, -1], "threshold": [6.200000047683716, -2.0, 13.099999904632568, -2.0, -2.0], "feature": [173, -2, 101, -2, -2], "classes": [0, 1, 2, 3, 4], "value": [[9.0, 0.0, 3.0, 11.0, 12.0], [0.0, 0.0, 0.0, 0.0, 11.0], [9.0, 0.0, 3.0, 11.0, 1.0], [4.0, 0.0, 0.0, 11.0, 0.0], [5.0, 0.0, 3.0, 0.0, 1.0]]}, {"children_left": [1, 2, -1, -1, 5, -1, -1], "children_right": [4, 3, -1, -1, 6, -1, -1], "threshold": [-0.15000000223517418, 0.2500000037252903, -2.0, -2.0, 0.75, -2.0, -2.0], "feature": [166, 37, -2, -2, 45, -2, -2], "classes": [0, 1, 2, 3, 4], "value": [[11.0, 2.0, 0.0, 10.0, 12.0], [0.0, 2.0, 0.0, 0.0, 12.0], [0.0, 0.0, 0.0, 0.0, 12.0], [0.0, 2.0, 0.0, 0.0, 0.0], [11.0, 0.0, 0.0, 10.0, 0.0], [1.0, 0.0, 0.0, 8.0, 0.0], [10.0, 0.0, 0.0, 2.0, 0.0]]}, {"children_left": [1, 2, -1, -1, 5, -1, -1], "children_right": [4, 3, -1, -1, 6, -1, -1], "threshold": [3.399999976158142, 0.05000000074505806, -2.0, -2.0, -0.20000000670552254, -2.0, -2.0], "feature": [107, 133, -2, -2, 75, -2, -2], "classes": [0, 1, 2, 3, 4], "value": [[9.0, 1.0, 1.0, 18.0, 6.0], [2.0, 1.0, 1.0, 18.0, 1.0], [0.0, 1.0, 1.0, 18.0, 0.0], [2.0, 0.0, 0.0, 0.0, 1.0], [7.0, 0.0, 0.0, 0.0, 5.0], [0.0, 0.0, 0.0, 0.0, 5.0], [7.0, 0.0, 0.0, 0.0, 0.0]]}, {"children_left": [1, 2, -1, -1, -1], "children_right": [4, 3, -1, -1, -1], "threshold": [5.700000047683716, -0.45000000298023224, -2.0, -2.0, -2.0], "feature": [107, 28, -2, -2, -2], "classes": [0, 1, 2, 3, 4], "value": [[12.0, 0.0, 2.0, 11.0, 10.0], [12.0, 0.0, 2.0, 11.0, 1.0], [0.0, 0.0, 0.0, 9.0, 1.0], [12.0, 0.0, 2.0, 2.0, 0.0], [0.0, 0.0, 0.0, 0.0, 9.0]]}, {"children_left": [1, 2, -1, -1, 5, -1, -1], "children_right": [4, 3, -1, -1, 6, -1, -1], "threshold": [-0.15000000223517418, 0.5000000149011612, -2.0, -2.0, -0.45000000298023224, -2.0, -2.0], "feature": [99, 15, -2, -2, 1, -2, -2], "classes": [0, 1, 2, 3, 4], "value": [[9.0, 0.0, 1.0, 13.0, 12.0], [0.0, 0.0, 1.0, 0.0, 11.0], [0.0, 0.0, 0.0, 0.0, 11.0], [0.0, 0.0, 1.0, 0.0, 0.0], [9.0, 0.0, 0.0, 13.0, 1.0], [0.0, 0.0, 0.0, 12.0, 0.0], [9.0, 0.0, 0.0, 1.0, 1.0]]}, {"children_left": [1, 2, -1, -1, -1], "children_right": [4, 3, -1, -1, -1], "threshold": [-0.05000000074505806, 5.75, -2.0, -2.0, -2.0], "feature": [106, 116, -2, -2, -2], "classes": [0, 1, 2, 3, 4], "value": [[12.0, 1.0, 1.0, 13.0, 8.0], [2.0, 1.0, 1.0, 13.0, 8.0], [2.0, 1.0, 1.0, 13.0, 1.0], [0.0, 0.0, 0.0, 0.0, 7.0], [10.0, 0.0, 0.0, 0.0, 0.0]]}, {"children_left": [1, 2, -1, -1, 5, -1, -1], "children_right": [4, 3, -1, -1, 6, -1, -1], "threshold": [-2.350000023841858, -0.4000000059604645, -2.0, -2.0, -0.30000000447034836, -2.0, -2.0], "feature": [35, 133, -2, -2, 19, -2, -2], "classes": [0, 1, 2, 3, 4], "value": [[15.0, 3.0, 1.0, 10.0, 6.0], [13.0, 3.0, 1.0, 0.0, 6.0], [0.0, 3.0, 0.0, 0.0, 6.0], [13.0, 0.0, 1.0, 0.0, 0.0], [2.0, 0.0, 0.0, 10.0, 0.0], [0.0, 0.0, 0.0, 10.0, 0.0], [2.0, 0.0, 0.0, 0.0, 0.0]]}, {"children_left": [1, 2, -1, -1, 5, -1, -1], "children_right": [4, 3, -1, -1, 6, -1, -1], "threshold": [-0.45000000298023224, -0.10000000521540642, -2.0, -2.0, -0.15000000223517418, -2.0, -2.0], "feature": [28, 73, -2, -2, 81, -2, -2], "classes": [0, 1, 2, 3, 4], "value": [[8.0, 2.0, 1.0, 17.0, 7.0], [0.0, 0.0, 0.0, 16.0, 4.0], [0.0, 0.0, 0.0, 16.0, 0.0], [0.0, 0.0, 0.0, 0.0, 4.0], [8.0, 2.0, 1.0, 1.0, 3.0], [0.0, 2.0, 1.0, 0.0, 2.0], [8.0, 0.0, 0.0, 1.0, 1.0]]}, {"children_left": [1, 2, -1, -1, -1], "children_right": [4, 3, -1, -1, -1], "threshold": [0.45000000298023224, 0.05000000074505806, -2.0, -2.0, -2.0], "feature": [78, 148, -2, -2, -2], "classes": [0, 1, 2, 3, 4], "value": [[8.0, 2.0, 2.0, 11.0, 12.0], [8.0, 2.0, 2.0, 11.0, 3.0], [1.0, 0.0, 0.0, 11.0, 1.0], [7.0, 2.0, 2.0, 0.0, 2.0], [0.0, 0.0, 0.0, 0.0, 9.0]]}, {"children_left": [1, -1, 3, -1, -1], "children_right": [2, -1, 4, -1, -1], "threshold": [-3.5, -2.0, -0.45000000298023224, -2.0, -2.0], "feature": [170, -2, 28, -2, -2], "classes": [0, 1, 2, 3, 4], "value": [[9.0, 1.0, 1.0, 13.0, 11.0], [0.0, 0.0, 0.0, 0.0, 11.0], [9.0, 1.0, 1.0, 13.0, 0.0], [0.0, 0.0, 0.0, 12.0, 0.0], [9.0, 1.0, 1.0, 1.0, 0.0]]}, {"children_left": [1, 2, -1, -1, -1], "children_right": [4, 3, -1, -1, -1], "threshold": [0.10000000149011612, -0.05000000074505806, -2.0, -2.0, -2.0], "feature": [172, 156, -2, -2, -2], "classes": [0, 1, 2, 3, 4], "value": [[12.0, 3.0, 1.0, 10.0, 9.0], [12.0, 3.0, 1.0, 10.0, 1.0], [10.0, 0.0, 1.0, 1.0, 0.0], [2.0, 3.0, 0.0, 9.0, 1.0], [0.0, 0.0, 0.0, 0.0, 8.0]]}, {"children_left": [1, 2, -1, -1, 5, -1, -1], "children_right": [4, 3, -1, -1, 6, -1, -1], "threshold": [-1.699999988079071, 0.3500000089406967, -2.0, -2.0, 0.05000000074505806, -2.0, -2.0], "feature": [170, 54, -2, -2, 131, -2, -2], "classes": [0, 1, 2, 3, 4], "value": [[9.0, 1.0, 1.0, 10.0, 14.0], [8.0, 0.0, 0.0, 1.0, 14.0], [0.0, 0.0, 0.0, 0.0, 12.0], [8.0, 0.0, 0.0, 1.0, 2.0], [1.0, 1.0, 1.0, 9.0, 0.0], [0.0, 1.0, 0.0, 9.0, 0.0], [1.0, 0.0, 1.0, 0.0, 0.0]]}, {"children_left": [1, 2, -1, -1, 5, -1, -1], "children_right": [4, 3, -1, -1, 6, -1, -1], "threshold": [-0.15000000223517418, 0.050000011920928955, -2.0, -2.0, 0.75, -2.0, -2.0], "feature": [157, 125, -2, -2, 108, -2, -2], "classes": [0, 1, 2, 3, 4], "value": [[10.0, 2.0, 0.0, 14.0, 9.0], [1.0, 0.0, 0.0, 3.0, 9.0], [1.0, 0.0, 0.0, 3.0, 0.0], [0.0, 0.0, 0.0, 0.0, 9.0], [9.0, 2.0, 0.0, 11.0, 0.0], [2.0, 2.0, 0.0, 11.0, 0.0], [7.0, 0.0, 0.0, 0.0, 0.0]]}, {"children_left": [1, 2, -1, -1, 5, -1, -1], "children_right": [4, 3, -1, -1, 6, -1, -1], "threshold": [13.949999809265137, -0.05000000074505806, -2.0, -2.0, 0.45000000298023224, -2.0, -2.0], "feature": [101, 22, -2, -2, 12, -2, -2], "classes": [0, 1, 2, 3, 4], "value": [[18.0, 0.0, 2.0, 6.0, 9.0], [18.0, 0.0, 0.0, 6.0, 2.0], [0.0, 0.0, 0.0, 3.0, 2.0], [18.0, 0.0, 0.0, 3.0, 0.0], [0.0, 0.0, 2.0, 0.0, 7.0], [0.0, 0.0, 0.0, 0.0, 7.0], [0.0, 0.0, 2.0, 0.0, 0.0]]}, {"children_left": [1, 2, -1, -1, 5, -1, -1], "children_right": [4, 3, -1, -1, 6, -1, -1], "threshold": [-0.45000000298023224, -0.30000000447034836, -2.0, -2.0, 7.349999904632568, -2.0, -2.0], "feature": [28, 10, -2, -2, 116, -2, -2], "classes": [0, 1, 2, 3, 4], "value": [[14.0, 1.0, 1.0, 11.0, 8.0], [0.0, 0.0, 0.0, 9.0, 3.0], [0.0, 0.0, 0.0, 9.0, 0.0], [0.0, 0.0, 0.0, 0.0, 3.0], [14.0, 1.0, 1.0, 2.0, 5.0], [14.0, 1.0, 1.0, 2.0, 0.0], [0.0, 0.0, 0.0, 0.0, 5.0]]}, {"children_left": [1, -1, 3, -1, -1], "children_right": [2, -1, 4, -1, -1], "threshold": [-0.45000000298023224, -2.0, -0.05000000074505806, -2.0, -2.0], "feature": [117, -2, 12, -2, -2], "classes": [0, 1, 2, 3, 4], "value": [[14.0, 1.0, 0.0, 12.0, 8.0], [0.0, 0.0, 0.0, 0.0, 7.0], [14.0, 1.0, 0.0, 12.0, 1.0], [12.0, 0.0, 0.0, 0.0, 0.0], [2.0, 1.0, 0.0, 12.0, 1.0]]}, {"children_left": [1, 2, -1, -1, 5, -1, -1], "children_right": [4, 3, -1, -1, 6, -1, -1], "threshold": [-0.14999999850988388, 8.350000143051147, -2.0, -2.0, -0.2500000074505806, -2.0, -2.0], "feature": [63, 38, -2, -2, 91, -2, -2], "classes": [0, 1, 2, 3, 4], "value": [[11.0, 2.0, 0.0, 14.0, 8.0], [0.0, 2.0, 0.0, 0.0, 8.0], [0.0, 0.0, 0.0, 0.0, 8.0], [0.0, 2.0, 0.0, 0.0, 0.0], [11.0, 0.0, 0.0, 14.0, 0.0], [0.0, 0.0, 0.0, 12.0, 0.0], [11.0, 0.0, 0.0, 2.0, 0.0]]}, {"children_left": [1, 2, -1, -1, 5, -1, -1], "children_right": [4, 3, -1, -1, 6, -1, -1], "threshold": [0.3500000089406967, 10.199999809265137, -2.0, -2.0, -0.45000000298023224, -2.0, -2.0], "feature": [54, 119, -2, -2, 37, -2, -2], "classes": [0, 1, 2, 3, 4], "value": [[13.0, 1.0, 1.0, 6.0, 14.0], [0.0, 1.0, 1.0, 1.0, 10.0], [0.0, 1.0, 1.0, 1.0, 0.0], [0.0, 0.0, 0.0, 0.0, 10.0], [13.0, 0.0, 0.0, 5.0, 4.0], [0.0, 0.0, 0.0, 4.0, 3.0], [13.0, 0.0, 0.0, 1.0, 1.0]]}, {"children_left": [1, -1, 3, -1, -1], "children_right": [2, -1, 4, -1, -1], "threshold": [-0.45000000298023224, -2.0, -0.20000000670552254, -2.0, -2.0], "feature": [1, -2, 166, -2, -2], "classes": [0, 1, 2, 3, 4], "value": [[13.0, 0.0, 0.0, 15.0, 7.0], [0.0, 0.0, 0.0, 12.0, 0.0], [13.0, 0.0, 0.0, 3.0, 7.0], [0.0, 0.0, 0.0, 0.0, 7.0], [13.0, 0.0, 0.0, 3.0, 0.0]]}, {"children_left": [1, 2, -1, -1, 5, -1, -1], "children_right": [4, 3, -1, -1, 6, -1, -1], "threshold": [0.20000000670552254, -1.0499999821186066, -2.0, -2.0, -0.45000000298023224, -2.0, -2.0], "feature": [36, 0, -2, -2, 28, -2, -2], "classes": [0, 1, 2, 3, 4], "value": [[9.0, 1.0, 2.0, 9.0, 14.0], [0.0, 1.0, 2.0, 0.0, 13.0], [0.0, 1.0, 2.0, 0.0, 0.0], [0.0, 0.0, 0.0, 0.0, 13.0], [9.0, 0.0, 0.0, 9.0, 1.0], [0.0, 0.0, 0.0, 9.0, 1.0], [9.0, 0.0, 0.0, 0.0, 0.0]]}, {"children_left": [1, -1, 3, -1, -1], "children_right": [2, -1, 4, -1, -1], "threshold": [12.099999904632568, -2.0, -0.05000000074505806, -2.0, -2.0], "feature": [119, -2, 99, -2, -2], "classes": [0, 1, 2, 3, 4], "value": [[7.0, 0.0, 0.0, 15.0, 13.0], [0.0, 0.0, 0.0, 15.0, 0.0], [7.0, 0.0, 0.0, 0.0, 13.0], [0.0, 0.0, 0.0, 0.0, 13.0], [7.0, 0.0, 0.0, 0.0, 0.0]]}, {"children_left": [1, 2, -1, -1, 5, -1, -1], "children_right": [4, 3, -1, -1, 6, -1, -1], "threshold": [0.15000000223517418, -0.75, -2.0, -2.0, -0.05000000074505806, -2.0, -2.0], "feature": [144, 178, -2, -2, 8, -2, -2], "classes": [0, 1, 2, 3, 4], "value": [[13.0, 1.0, 4.0, 9.0, 8.0], [0.0, 1.0, 4.0, 0.0, 8.0], [0.0, 0.0, 0.0, 0.0, 8.0], [0.0, 1.0, 4.0, 0.0, 0.0], [13.0, 0.0, 0.0, 9.0, 0.0], [13.0, 0.0, 0.0, 2.0, 0.0], [0.0, 0.0, 0.0, 7.0, 0.0]]}, {"children_left": [1, 2, -1, -1, 5, -1, -1], "children_right": [4, 3, -1, -1, 6, -1, -1], "threshold": [14.599999904632568, -0.6500000059604645, -2.0, -2.0, 9.899999856948853, -2.0, -2.0], "feature": [101, 179, -2, -2, 137, -2, -2], "classes": [0, 1, 2, 3, 4], "value": [[15.0, 2.0, 1.0, 13.0, 4.0], [15.0, 2.0, 0.0, 13.0, 0.0], [15.0, 0.0, 0.0, 6.0, 0.0], [0.0, 2.0, 0.0, 7.0, 0.0], [0.0, 0.0, 1.0, 0.0, 4.0], [0.0, 0.0, 1.0, 0.0, 0.0], [0.0, 0.0, 0.0, 0.0, 4.0]]}, {"children_left": [1, -1, 3, -1, -1], "children_right": [2, -1, 4, -1, -1], "threshold": [-0.19999999925494194, -2.0, 1.0999999642372131, -2.0, -2.0], "feature": [117, -2, 107, -2, -2], "classes": [0, 1, 2, 3, 4], "value": [[14.0, 0.0, 0.0, 12.0, 9.0], [0.0, 0.0, 0.0, 0.0, 8.0], [14.0, 0.0, 0.0, 12.0, 1.0], [0.0, 0.0, 0.0, 8.0, 0.0], [14.0, 0.0, 0.0, 4.0, 1.0]]}, {"children_left": [1, 2, -1, -1, 5, -1, -1], "children_right": [4, 3, -1, -1, 6, -1, -1], "threshold": [0.45000001788139343, -0.10000000149011612, -2.0, -2.0, -0.3500000089406967, -2.0, -2.0], "feature": [54, 157, -2, -2, 55, -2, -2], "classes": [0, 1, 2, 3, 4], "value": [[9.0, 0.0, 0.0, 12.0, 14.0], [0.0, 0.0, 0.0, 1.0, 13.0], [0.0, 0.0, 0.0, 0.0, 13.0], [0.0, 0.0, 0.0, 1.0, 0.0], [9.0, 0.0, 0.0, 11.0, 1.0], [1.0, 0.0, 0.0, 10.0, 0.0], [8.0, 0.0, 0.0, 1.0, 1.0]]}, {"children_left": [1, 2, -1, -1, 5, -1, -1], "children_right": [4, 3, -1, -1, 6, -1, -1], "threshold": [-0.45000000298023224, -0.4000000059604645, -2.0, -2.0, -0.1499999761581421, -2.0, -2.0], "feature": [37, 1, -2, -2, 45, -2, -2], "classes": [0, 1, 2, 3, 4], "value": [[14.0, 1.0, 1.0, 13.0, 6.0], [0.0, 0.0, 0.0, 12.0, 4.0], [0.0, 0.0, 0.0, 12.0, 0.0], [0.0, 0.0, 0.0, 0.0, 4.0], [14.0, 1.0, 1.0, 1.0, 2.0], [0.0, 1.0, 1.0, 0.0, 2.0], [14.0, 0.0, 0.0, 1.0, 0.0]]}, {"children_left": [1, -1, 3, -1, -1], "children_right": [2, -1, 4, -1, -1], "threshold": [-0.9000000059604645, -2.0, -0.15000000223517418, -2.0, -2.0], "feature": [109, -2, 178, -2, -2], "classes": [0, 1, 2, 3, 4], "value": [[7.0, 2.0, 0.0, 11.0, 15.0], [0.0, 0.0, 0.0, 0.0, 13.0], [7.0, 2.0, 0.0, 11.0, 2.0], [1.0, 2.0, 0.0, 11.0, 2.0], [6.0, 0.0, 0.0, 0.0, 0.0]]}, {"children_left": [1, 2, -1, -1, 5, -1, -1], "children_right": [4, 3, -1, -1, 6, -1, -1], "threshold": [-0.45000001788139343, -0.05000000074505806, -2.0, -2.0, -0.20000000670552254, -2.0, -2.0], "feature": [143, 172, -2, -2, 157, -2, -2], "classes": [0, 1, 2, 3, 4], "value": [[10.0, 0.0, 1.0, 16.0, 8.0], [0.0, 0.0, 1.0, 16.0, 4.0], [0.0, 0.0, 0.0, 16.0, 0.0], [0.0, 0.0, 1.0, 0.0, 4.0], [10.0, 0.0, 0.0, 0.0, 4.0], [0.0, 0.0, 0.0, 0.0, 4.0], [10.0, 0.0, 0.0, 0.0, 0.0]]}, {"children_left": [1, -1, 3, -1, -1], "children_right": [2, -1, 4, -1, -1], "threshold": [-3.9499999284744263, -2.0, 0.7000000178813934, -2.0, -2.0], "feature": [35, -2, 18, -2, -2], "classes": [0, 1, 2, 3, 4], "value": [[9.0, 1.0, 1.0, 8.0, 16.0], [0.0, 0.0, 0.0, 0.0, 15.0], [9.0, 1.0, 1.0, 8.0, 1.0], [1.0, 1.0, 1.0, 8.0, 0.0], [8.0, 0.0, 0.0, 0.0, 1.0]]}, {"children_left": [1, -1, 3, -1, -1], "children_right": [2, -1, 4, -1, -1], "threshold": [-3.9499999284744263, -2.0, 1.050000011920929, -2.0, -2.0], "feature": [35, -2, 9, -2, -2], "classes": [0, 1, 2, 3, 4], "value": [[10.0, 1.0, 2.0, 8.0, 14.0], [0.0, 0.0, 0.0, 0.0, 12.0], [10.0, 1.0, 2.0, 8.0, 2.0], [1.0, 1.0, 2.0, 8.0, 1.0], [9.0, 0.0, 0.0, 0.0, 1.0]]}, {"children_left": [1, 2, -1, -1, -1], "children_right": [4, 3, -1, -1, -1], "threshold": [13.949999809265137, 1.0, -2.0, -2.0, -2.0], "feature": [101, 0, -2, -2, -2], "classes": [0, 1, 2, 3, 4], "value": [[6.0, 1.0, 0.0, 13.0, 15.0], [6.0, 1.0, 0.0, 13.0, 1.0], [0.0, 1.0, 0.0, 12.0, 1.0], [6.0, 0.0, 0.0, 1.0, 0.0], [0.0, 0.0, 0.0, 0.0, 14.0]]}, {"children_left": [1, 2, -1, -1, 5, -1, -1], "children_right": [4, 3, -1, -1, 6, -1, -1], "threshold": [7.25, -0.350000012665987, -2.0, -2.0, 0.05000000074505806, -2.0, -2.0], "feature": [29, 84, -2, -2, 78, -2, -2], "classes": [0, 1, 2, 3, 4], "value": [[9.0, 1.0, 2.0, 12.0, 11.0], [4.0, 0.0, 2.0, 0.0, 11.0], [0.0, 0.0, 2.0, 0.0, 11.0], [4.0, 0.0, 0.0, 0.0, 0.0], [5.0, 1.0, 0.0, 12.0, 0.0], [5.0, 1.0, 0.0, 2.0, 0.0], [0.0, 0.0, 0.0, 10.0, 0.0]]}, {"children_left": [1, 2, -1, -1, 5, -1, -1], "children_right": [4, 3, -1, -1, 6, -1, -1], "threshold": [-0.19999999925494194, -1.800000011920929, -2.0, -2.0, 0.9000000059604645, -2.0, -2.0], "feature": [108, 90, -2, -2, 9, -2, -2], "classes": [0, 1, 2, 3, 4], "value": [[19.0, 1.0, 1.0, 5.0, 9.0], [0.0, 1.0, 1.0, 0.0, 9.0], [0.0, 1.0, 1.0, 0.0, 0.0], [0.0, 0.0, 0.0, 0.0, 9.0], [19.0, 0.0, 0.0, 5.0, 0.0], [1.0, 0.0, 0.0, 5.0, 0.0], [18.0, 0.0, 0.0, 0.0, 0.0]]}, {"children_left": [1, -1, 3, -1, -1], "children_right": [2, -1, 4, -1, -1], "threshold": [6.200000047683716, -2.0, -0.10000000149011612, -2.0, -2.0], "feature": [173, -2, 178, -2, -2], "classes": [0, 1, 2, 3, 4], "value": [[12.0, 1.0, 1.0, 11.0, 10.0], [0.0, 0.0, 0.0, 0.0, 8.0], [12.0, 1.0, 1.0, 11.0, 2.0], [3.0, 1.0, 0.0, 11.0, 2.0], [9.0, 0.0, 1.0, 0.0, 0.0]]}, {"children_left": [1, 2, -1, -1, 5, -1, -1], "children_right": [4, 3, -1, -1, 6, -1, -1], "threshold": [-0.05000000074505806, -1.0999999940395355, -2.0, -2.0, -0.15000000596046448, -2.0, -2.0], "feature": [43, 100, -2, -2, 115, -2, -2], "classes": [0, 1, 2, 3, 4], "value": [[10.0, 0.0, 0.0, 18.0, 7.0], [2.0, 0.0, 0.0, 18.0, 6.0], [0.0, 0.0, 0.0, 0.0, 5.0], [2.0, 0.0, 0.0, 18.0, 1.0], [8.0, 0.0, 0.0, 0.0, 1.0], [0.0, 0.0, 0.0, 0.0, 1.0], [8.0, 0.0, 0.0, 0.0, 0.0]]}, {"children_left": [1, 2, -1, -1, 5, -1, -1], "children_right": [4, 3, -1, -1, 6, -1, -1], "threshold": [-0.4000000059604645, 0.4000000059604645, -2.0, -2.0, -0.05000000074505806, -2.0, -2.0], "feature": [1, 148, -2, -2, 118, -2, -2], "classes": [0, 1, 2, 3, 4], "value": [[12.0, 4.0, 0.0, 10.0, 9.0], [0.0, 4.0, 0.0, 9.0, 0.0], [0.0, 0.0, 0.0, 9.0, 0.0], [0.0, 4.0, 0.0, 0.0, 0.0], [12.0, 0.0, 0.0, 1.0, 9.0], [0.0, 0.0, 0.0, 0.0, 9.0], [12.0, 0.0, 0.0, 1.0, 0.0]]}, {"children_left": [1, 2, -1, -1, 5, -1, -1], "children_right": [4, 3, -1, -1, 6, -1, -1], "threshold": [-0.15000000223517418, -0.2500000037252903, -2.0, -2.0, 0.15000000223517418, -2.0, -2.0], "feature": [175, 34, -2, -2, 145, -2, -2], "classes": [0, 1, 2, 3, 4], "value": [[10.0, 2.0, 0.0, 10.0, 13.0], [1.0, 2.0, 0.0, 0.0, 11.0], [0.0, 0.0, 0.0, 0.0, 11.0], [1.0, 2.0, 0.0, 0.0, 0.0], [9.0, 0.0, 0.0, 10.0, 2.0], [1.0, 0.0, 0.0, 10.0, 2.0], [8.0, 0.0, 0.0, 0.0, 0.0]]}, {"children_left": [1, 2, -1, -1, 5, -1, -1], "children_right": [4, 3, -1, -1, 6, -1, -1], "threshold": [12.800000190734863, -0.10000000149011612, -2.0, -2.0, 0.3500000089406967, -2.0, -2.0], "feature": [119, 139, -2, -2, 126, -2, -2], "classes": [0, 1, 2, 3, 4], "value": [[7.0, 0.0, 1.0, 16.0, 11.0], [3.0, 0.0, 1.0, 16.0, 0.0], [3.0, 0.0, 1.0, 1.0, 0.0], [0.0, 0.0, 0.0, 15.0, 0.0], [4.0, 0.0, 0.0, 0.0, 11.0], [0.0, 0.0, 0.0, 0.0, 11.0], [4.0, 0.0, 0.0, 0.0, 0.0]]}, {"children_left": [1, 2, -1, -1, 5, -1, -1], "children_right": [4, 3, -1, -1, 6, -1, -1], "threshold": [0.19999999925494194, -0.45000000298023224, -2.0, -2.0, 0.6000000089406967, -2.0, -2.0], "feature": [64, 1, -2, -2, 148, -2, -2], "classes": [0, 1, 2, 3, 4], "value": [[10.0, 1.0, 0.0, 12.0, 12.0], [10.0, 0.0, 0.0, 12.0, 1.0], [0.0, 0.0, 0.0, 11.0, 0.0], [10.0, 0.0, 0.0, 1.0, 1.0], [0.0, 1.0, 0.0, 0.0, 11.0], [0.0, 0.0, 0.0, 0.0, 11.0], [0.0, 1.0, 0.0, 0.0, 0.0]]}, {"children_left": [1, 2, -1, -1, 5, -1, -1], "children_right": [4, 3, -1, -1, 6, -1, -1], "threshold": [2.5, -0.5499999970197678, -2.0, -2.0, 0.2500000074505806, -2.0, -2.0], "feature": [125, 54, -2, -2, 133, -2, -2], "classes": [0, 1, 2, 3, 4], "value": [[5.0, 0.0, 2.0, 13.0, 15.0], [1.0, 0.0, 2.0, 13.0, 1.0], [0.0, 0.0, 2.0, 0.0, 1.0], [1.0, 0.0, 0.0, 13.0, 0.0], [4.0, 0.0, 0.0, 0.0, 14.0], [0.0, 0.0, 0.0, 0.0, 14.0], [4.0, 0.0, 0.0, 0.0, 0.0]]}, {"children_left": [1, 2, -1, -1, 5, -1, -1], "children_right": [4, 3, -1, -1, 6, -1, -1], "threshold": [-0.05000000074505806, -1.1499999538064003, -2.0, -2.0, -0.45000000298023224, -2.0, -2.0], "feature": [99, 170, -2, -2, 1, -2, -2], "classes": [0, 1, 2, 3, 4], "value": [[6.0, 1.0, 1.0, 15.0, 12.0], [0.0, 1.0, 1.0, 0.0, 12.0], [0.0, 0.0, 0.0, 0.0, 12.0], [0.0, 1.0, 1.0, 0.0, 0.0], [6.0, 0.0, 0.0, 15.0, 0.0], [0.0, 0.0, 0.0, 14.0, 0.0], [6.0, 0.0, 0.0, 1.0, 0.0]]}, {"children_left": [1, 2, -1, -1, -1], "children_right": [4, 3, -1, -1, -1], "threshold": [0.15000000223517418, -0.45000000298023224, -2.0, -2.0, -2.0], "feature": [147, 1, -2, -2, -2], "classes": [0, 1, 2, 3, 4], "value": [[10.0, 0.0, 1.0, 15.0, 9.0], [10.0, 0.0, 1.0, 15.0, 1.0], [0.0, 0.0, 1.0, 14.0, 0.0], [10.0, 0.0, 0.0, 1.0, 1.0], [0.0, 0.0, 0.0, 0.0, 8.0]]}, {"children_left": [1, 2, -1, -1, 5, -1, -1], "children_right": [4, 3, -1, -1, 6, -1, -1], "threshold": [-0.15000000223517418, -0.3500000089406967, -2.0, -2.0, -0.05000000074505806, -2.0, -2.0], "feature": [157, 34, -2, -2, 154, -2, -2], "classes": [0, 1, 2, 3, 4], "value": [[6.0, 1.0, 1.0, 13.0, 14.0], [0.0, 0.0, 0.0, 1.0, 13.0], [0.0, 0.0, 0.0, 0.0, 13.0], [0.0, 0.0, 0.0, 1.0, 0.0], [6.0, 1.0, 1.0, 12.0, 1.0], [1.0, 1.0, 0.0, 12.0, 0.0], [5.0, 0.0, 1.0, 0.0, 1.0]]}, {"children_left": [1, 2, -1, -1, 5, -1, -1], "children_right": [4, 3, -1, -1, 6, -1, -1], "threshold": [-0.2500000037252903, 0.3500000089406967, -2.0, -2.0, 8.550000190734863, -2.0, -2.0], "feature": [145, 0, -2, -2, 137, -2, -2], "classes": [0, 1, 2, 3, 4], "value": [[13.0, 1.0, 1.0, 11.0, 9.0], [0.0, 1.0, 0.0, 11.0, 3.0], [0.0, 1.0, 0.0, 0.0, 3.0], [0.0, 0.0, 0.0, 11.0, 0.0], [13.0, 0.0, 1.0, 0.0, 6.0], [0.0, 0.0, 1.0, 0.0, 5.0], [13.0, 0.0, 0.0, 0.0, 1.0]]}, {"children_left": [1, 2, -1, -1, 5, -1, -1], "children_right": [4, 3, -1, -1, 6, -1, -1], "threshold": [-0.15000000223517418, 9.099999904632568, -2.0, -2.0, 0.05000000074505806, -2.0, -2.0], "feature": [108, 164, -2, -2, 148, -2, -2], "classes": [0, 1, 2, 3, 4], "value": [[6.0, 1.0, 1.0, 15.0, 12.0], [0.0, 1.0, 1.0, 0.0, 12.0], [0.0, 0.0, 0.0, 0.0, 12.0], [0.0, 1.0, 1.0, 0.0, 0.0], [6.0, 0.0, 0.0, 15.0, 0.0], [1.0, 0.0, 0.0, 15.0, 0.0], [5.0, 0.0, 0.0, 0.0, 0.0]]}, {"children_left": [1, -1, 3, -1, -1], "children_right": [2, -1, 4, -1, -1], "threshold": [-0.7999999821186066, -2.0, 0.6000000014901161, -2.0, -2.0], "feature": [169, -2, 134, -2, -2], "classes": [0, 1, 2, 3, 4], "value": [[7.0, 2.0, 1.0, 15.0, 10.0], [0.0, 0.0, 0.0, 0.0, 8.0], [7.0, 2.0, 1.0, 15.0, 2.0], [0.0, 2.0, 1.0, 13.0, 0.0], [7.0, 0.0, 0.0, 2.0, 2.0]]}, {"children_left": [1, -1, 3, -1, -1], "children_right": [2, -1, 4, -1, -1], "threshold": [-0.15000000596046448, -2.0, 0.05000000074505806, -2.0, -2.0], "feature": [90, -2, 22, -2, -2], "classes": [0, 1, 2, 3, 4], "value": [[12.0, 0.0, 0.0, 13.0, 10.0], [0.0, 0.0, 0.0, 0.0, 10.0], [12.0, 0.0, 0.0, 13.0, 0.0], [5.0, 0.0, 0.0, 13.0, 0.0], [7.0, 0.0, 0.0, 0.0, 0.0]]}, {"children_left": [1, 2, -1, -1, 5, -1, -1], "children_right": [4, 3, -1, -1, 6, -1, -1], "threshold": [-0.75, -0.15000000223517418, -2.0, -2.0, 0.6000000014901161, -2.0, -2.0], "feature": [178, 48, -2, -2, 134, -2, -2], "classes": [0, 1, 2, 3, 4], "value": [[5.0, 3.0, 0.0, 17.0, 10.0], [0.0, 0.0, 0.0, 1.0, 10.0], [0.0, 0.0, 0.0, 1.0, 0.0], [0.0, 0.0, 0.0, 0.0, 10.0], [5.0, 3.0, 0.0, 16.0, 0.0], [0.0, 3.0, 0.0, 15.0, 0.0], [5.0, 0.0, 0.0, 1.0, 0.0]]}, {"children_left": [1, 2, -1, -1, 5, -1, -1], "children_right": [4, 3, -1, -1, 6, -1, -1], "threshold": [-0.15000000223517418, 0.10000000149011612, -2.0, -2.0, -0.3500000089406967, -2.0, -2.0], "feature": [178, 172, -2, -2, 147, -2, -2], "classes": [0, 1, 2, 3, 4], "value": [[12.0, 1.0, 1.0, 12.0, 9.0], [2.0, 1.0, 0.0, 12.0, 9.0], [2.0, 1.0, 0.0, 12.0, 1.0], [0.0, 0.0, 0.0, 0.0, 8.0], [10.0, 0.0, 1.0, 0.0, 0.0], [0.0, 0.0, 1.0, 0.0, 0.0], [10.0, 0.0, 0.0, 0.0, 0.0]]}, {"children_left": [1, 2, -1, -1, 5, -1, -1], "children_right": [4, 3, -1, -1, 6, -1, -1], "threshold": [-0.15000000223517418, -0.05000000074505806, -2.0, -2.0, 9.349999904632568, -2.0, -2.0], "feature": [108, 14, -2, -2, 11, -2, -2], "classes": [0, 1, 2, 3, 4], "value": [[11.0, 2.0, 1.0, 11.0, 10.0], [0.0, 2.0, 1.0, 0.0, 10.0], [0.0, 2.0, 1.0, 0.0, 0.0], [0.0, 0.0, 0.0, 0.0, 10.0], [11.0, 0.0, 0.0, 11.0, 0.0], [9.0, 0.0, 0.0, 1.0, 0.0], [2.0, 0.0, 0.0, 10.0, 0.0]]}, {"children_left": [1, 2, -1, -1, 5, -1, -1], "children_right": [4, 3, -1, -1, 6, -1, -1], "threshold": [-0.15000000223517418, -1.399999976158142, -2.0, -2.0, 7.050000190734863, -2.0, -2.0], "feature": [166, 170, -2, -2, 38, -2, -2], "classes": [0, 1, 2, 3, 4], "value": [[7.0, 2.0, 1.0, 11.0, 14.0], [0.0, 2.0, 0.0, 1.0, 14.0], [0.0, 0.0, 0.0, 0.0, 14.0], [0.0, 2.0, 0.0, 1.0, 0.0], [7.0, 0.0, 1.0, 10.0, 0.0], [5.0, 0.0, 1.0, 1.0, 0.0], [2.0, 0.0, 0.0, 9.0, 0.0]]}, {"children_left": [1, -1, 3, -1, -1], "children_right": [2, -1, 4, -1, -1], "threshold": [5.5, -2.0, 0.3500000014901161, -2.0, -2.0], "feature": [164, -2, 64, -2, -2], "classes": [0, 1, 2, 3, 4], "value": [[4.0, 1.0, 1.0, 14.0, 15.0], [0.0, 0.0, 0.0, 0.0, 11.0], [4.0, 1.0, 1.0, 14.0, 4.0], [4.0, 0.0, 0.0, 14.0, 0.0], [0.0, 1.0, 1.0, 0.0, 4.0]]}, {"children_left": [1, -1, 3, -1, -1], "children_right": [2, -1, 4, -1, -1], "threshold": [-3.9499999284744263, -2.0, -0.5000000149011612, -2.0, -2.0], "feature": [35, -2, 145, -2, -2], "classes": [0, 1, 2, 3, 4], "value": [[11.0, 2.0, 1.0, 10.0, 11.0], [0.0, 0.0, 0.0, 0.0, 10.0], [11.0, 2.0, 1.0, 10.0, 1.0], [0.0, 2.0, 0.0, 9.0, 0.0], [11.0, 0.0, 1.0, 1.0, 1.0]]}, {"children_left": [1, 2, -1, -1, 5, -1, -1], "children_right": [4, 3, -1, -1, 6, -1, -1], "threshold": [0.6000000014901161, 4.450000047683716, -2.0, -2.0, 0.550000011920929, -2.0, -2.0], "feature": [134, 38, -2, -2, 54, -2, -2], "classes": [0, 1, 2, 3, 4], "value": [[11.0, 0.0, 1.0, 12.0, 11.0], [0.0, 0.0, 1.0, 10.0, 2.0], [0.0, 0.0, 0.0, 0.0, 2.0], [0.0, 0.0, 1.0, 10.0, 0.0], [11.0, 0.0, 0.0, 2.0, 9.0], [0.0, 0.0, 0.0, 0.0, 8.0], [11.0, 0.0, 0.0, 2.0, 1.0]]}, {"children_left": [1, -1, 3, -1, -1], "children_right": [2, -1, 4, -1, -1], "threshold": [-0.05000000074505806, -2.0, -0.05000000074505806, -2.0, -2.0], "feature": [126, -2, 156, -2, -2], "classes": [0, 1, 2, 3, 4], "value": [[10.0, 0.0, 0.0, 9.0, 16.0], [0.0, 0.0, 0.0, 0.0, 13.0], [10.0, 0.0, 0.0, 9.0, 3.0], [10.0, 0.0, 0.0, 1.0, 3.0], [0.0, 0.0, 0.0, 8.0, 0.0]]}, {"children_left": [1, 2, -1, -1, -1], "children_right": [4, 3, -1, -1, -1], "threshold": [7.050000190734863, -0.05000000074505806, -2.0, -2.0, -2.0], "feature": [116, 156, -2, -2, -2], "classes": [0, 1, 2, 3, 4], "value": [[6.0, 0.0, 2.0, 17.0, 10.0], [6.0, 0.0, 2.0, 17.0, 0.0], [6.0, 0.0, 2.0, 1.0, 0.0], [0.0, 0.0, 0.0, 16.0, 0.0], [0.0, 0.0, 0.0, 0.0, 10.0]]}, {"children_left": [1, -1, 3, -1, -1], "children_right": [2, -1, 4, -1, -1], "threshold": [-0.15000000223517418, -2.0, -0.3500000089406967, -2.0, -2.0], "feature": [108, -2, 127, -2, -2], "classes": [0, 1, 2, 3, 4], "value": [[9.0, 0.0, 0.0, 14.0, 12.0], [0.0, 0.0, 0.0, 0.0, 12.0], [9.0, 0.0, 0.0, 14.0, 0.0], [0.0, 0.0, 0.0, 12.0, 0.0], [9.0, 0.0, 0.0, 2.0, 0.0]]}, {"children_left": [1, -1, 3, -1, -1], "children_right": [2, -1, 4, -1, -1], "threshold": [-0.75, -2.0, -0.05000000074505806, -2.0, -2.0], "feature": [178, -2, 154, -2, -2], "classes": [0, 1, 2, 3, 4], "value": [[7.0, 0.0, 2.0, 14.0, 12.0], [0.0, 0.0, 0.0, 0.0, 12.0], [7.0, 0.0, 2.0, 14.0, 0.0], [1.0, 0.0, 0.0, 14.0, 0.0], [6.0, 0.0, 2.0, 0.0, 0.0]]}, {"children_left": [1, 2, -1, -1, 5, -1, -1], "children_right": [4, 3, -1, -1, 6, -1, -1], "threshold": [-0.15000000223517418, 3.25, -2.0, -2.0, -0.3500000089406967, -2.0, -2.0], "feature": [108, 107, -2, -2, 127, -2, -2], "classes": [0, 1, 2, 3, 4], "value": [[11.0, 2.0, 1.0, 14.0, 7.0], [0.0, 2.0, 1.0, 0.0, 7.0], [0.0, 2.0, 1.0, 0.0, 0.0], [0.0, 0.0, 0.0, 0.0, 7.0], [11.0, 0.0, 0.0, 14.0, 0.0], [0.0, 0.0, 0.0, 12.0, 0.0], [11.0, 0.0, 0.0, 2.0, 0.0]]}, {"children_left": [1, 2, -1, -1, 5, -1, -1], "children_right": [4, 3, -1, -1, 6, -1, -1], "threshold": [-0.05000000074505806, -0.15000000596046448, -2.0, -2.0, 0.10000000149011612, -2.0, -2.0], "feature": [90, 167, -2, -2, 97, -2, -2], "classes": [0, 1, 2, 3, 4], "value": [[6.0, 0.0, 1.0, 15.0, 13.0], [0.0, 0.0, 1.0, 0.0, 13.0], [0.0, 0.0, 1.0, 0.0, 0.0], [0.0, 0.0, 0.0, 0.0, 13.0], [6.0, 0.0, 0.0, 15.0, 0.0], [1.0, 0.0, 0.0, 15.0, 0.0], [5.0, 0.0, 0.0, 0.0, 0.0]]}, {"children_left": [1, 2, -1, -1, -1], "children_right": [4, 3, -1, -1, -1], "threshold": [5.849999904632568, -0.45000000298023224, -2.0, -2.0, -2.0], "feature": [116, 28, -2, -2, -2], "classes": [0, 1, 2, 3, 4], "value": [[6.0, 2.0, 2.0, 17.0, 8.0], [6.0, 2.0, 2.0, 17.0, 0.0], [0.0, 0.0, 0.0, 14.0, 0.0], [6.0, 2.0, 2.0, 3.0, 0.0], [0.0, 0.0, 0.0, 0.0, 8.0]]}, {"children_left": [1, 2, -1, -1, 5, -1, -1], "children_right": [4, 3, -1, -1, 6, -1, -1], "threshold": [-0.75, 0.30000000447034836, -2.0, -2.0, -2.350000023841858, -2.0, -2.0], "feature": [178, 127, -2, -2, 35, -2, -2], "classes": [0, 1, 2, 3, 4], "value": [[10.0, 0.0, 1.0, 17.0, 7.0], [1.0, 0.0, 0.0, 0.0, 7.0], [0.0, 0.0, 0.0, 0.0, 7.0], [1.0, 0.0, 0.0, 0.0, 0.0], [9.0, 0.0, 1.0, 17.0, 0.0], [9.0, 0.0, 1.0, 1.0, 0.0], [0.0, 0.0, 0.0, 16.0, 0.0]]}, {"children_left": [1, 2, -1, -1, 5, -1, -1], "children_right": [4, 3, -1, -1, 6, -1, -1], "threshold": [-0.15000000223517418, 12.800000190734863, -2.0, -2.0, -0.2500000074505806, -2.0, -2.0], "feature": [157, 110, -2, -2, 91, -2, -2], "classes": [0, 1, 2, 3, 4], "value": [[10.0, 1.0, 0.0, 14.0, 10.0], [1.0, 0.0, 0.0, 2.0, 10.0], [1.0, 0.0, 0.0, 2.0, 0.0], [0.0, 0.0, 0.0, 0.0, 10.0], [9.0, 1.0, 0.0, 12.0, 0.0], [0.0, 0.0, 0.0, 11.0, 0.0], [9.0, 1.0, 0.0, 1.0, 0.0]]}, {"children_left": [1, 2, -1, -1, 5, -1, -1], "children_right": [4, 3, -1, -1, 6, -1, -1], "threshold": [-0.10000000149011612, -0.09999996423721313, -2.0, -2.0, 3.0500000715255737, -2.0, -2.0], "feature": [108, 170, -2, -2, 125, -2, -2], "classes": [0, 1, 2, 3, 4], "value": [[11.0, 3.0, 0.0, 6.0, 15.0], [0.0, 3.0, 0.0, 0.0, 15.0], [0.0, 0.0, 0.0, 0.0, 15.0], [0.0, 3.0, 0.0, 0.0, 0.0], [11.0, 0.0, 0.0, 6.0, 0.0], [4.0, 0.0, 0.0, 6.0, 0.0], [7.0, 0.0, 0.0, 0.0, 0.0]]}, {"children_left": [1, 2, -1, -1, 5, -1, -1], "children_right": [4, 3, -1, -1, 6, -1, -1], "threshold": [-2.100000023841858, -0.7999999821186066, -2.0, -2.0, -0.15000000223517418, -2.0, -2.0], "feature": [44, 178, -2, -2, 28, -2, -2], "classes": [0, 1, 2, 3, 4], "value": [[9.0, 0.0, 1.0, 14.0, 11.0], [5.0, 0.0, 0.0, 1.0, 11.0], [0.0, 0.0, 0.0, 0.0, 11.0], [5.0, 0.0, 0.0, 1.0, 0.0], [4.0, 0.0, 1.0, 13.0, 0.0], [0.0, 0.0, 0.0, 13.0, 0.0], [4.0, 0.0, 1.0, 0.0, 0.0]]}, {"children_left": [1, 2, -1, -1, -1], "children_right": [4, 3, -1, -1, -1], "threshold": [-1.9499999284744263, -0.2500000037252903, -2.0, -2.0, -2.0], "feature": [179, 133, -2, -2, -2], "classes": [0, 1, 2, 3, 4], "value": [[4.0, 0.0, 0.0, 15.0, 16.0], [4.0, 0.0, 0.0, 0.0, 16.0], [0.0, 0.0, 0.0, 0.0, 14.0], [4.0, 0.0, 0.0, 0.0, 2.0], [0.0, 0.0, 0.0, 15.0, 0.0]]}, {"children_left": [1, 2, -1, -1, 5, -1, -1], "children_right": [4, 3, -1, -1, 6, -1, -1], "threshold": [13.949999809265137, -0.45000000298023224, -2.0, -2.0, -1.0999999642372131, -2.0, -2.0], "feature": [101, 1, -2, -2, 66, -2, -2], "classes": [0, 1, 2, 3, 4], "value": [[11.0, 2.0, 1.0, 13.0, 8.0], [11.0, 2.0, 0.0, 13.0, 1.0], [0.0, 2.0, 0.0, 13.0, 0.0], [11.0, 0.0, 0.0, 0.0, 1.0], [0.0, 0.0, 1.0, 0.0, 7.0], [0.0, 0.0, 1.0, 0.0, 0.0], [0.0, 0.0, 0.0, 0.0, 7.0]]}, {"children_left": [1, 2, -1, -1, 5, -1, -1], "children_right": [4, 3, -1, -1, 6, -1, -1], "threshold": [0.15000000596046448, -0.2500000074505806, -2.0, -2.0, -0.10000000149011612, -2.0, -2.0], "feature": [131, 118, -2, -2, 23, -2, -2], "classes": [0, 1, 2, 3, 4], "value": [[7.0, 2.0, 1.0, 12.0, 13.0], [7.0, 2.0, 0.0, 12.0, 1.0], [0.0, 2.0, 0.0, 12.0, 1.0], [7.0, 0.0, 0.0, 0.0, 0.0], [0.0, 0.0, 1.0, 0.0, 12.0], [0.0, 0.0, 1.0, 0.0, 0.0], [0.0, 0.0, 0.0, 0.0, 12.0]]}, {"children_left": [1, 2, -1, -1, 5, -1, -1], "children_right": [4, 3, -1, -1, 6, -1, -1], "threshold": [-0.45000001788139343, 7.949999809265137, -2.0, -2.0, -0.75, -2.0, -2.0], "feature": [143, 137, -2, -2, 71, -2, -2], "classes": [0, 1, 2, 3, 4], "value": [[12.0, 0.0, 3.0, 11.0, 9.0], [0.0, 0.0, 3.0, 11.0, 7.0], [0.0, 0.0, 3.0, 0.0, 7.0], [0.0, 0.0, 0.0, 11.0, 0.0], [12.0, 0.0, 0.0, 0.0, 2.0], [0.0, 0.0, 0.0, 0.0, 2.0], [12.0, 0.0, 0.0, 0.0, 0.0]]}, {"children_left": [1, -1, 3, -1, -1], "children_right": [2, -1, 4, -1, -1], "threshold": [-3.600000023841858, -2.0, 9.150000095367432, -2.0, -2.0], "feature": [170, -2, 146, -2, -2], "classes": [0, 1, 2, 3, 4], "value": [[12.0, 0.0, 1.0, 11.0, 11.0], [0.0, 0.0, 0.0, 0.0, 10.0], [12.0, 0.0, 1.0, 11.0, 1.0], [2.0, 0.0, 1.0, 11.0, 1.0], [10.0, 0.0, 0.0, 0.0, 0.0]]}, {"children_left": [1, 2, -1, -1, 5, -1, -1], "children_right": [4, 3, -1, -1, 6, -1, -1], "threshold": [-0.15000000223517418, -0.44999999552965164, -2.0, -2.0, -0.4000000059604645, -2.0, -2.0], "feature": [166, 154, -2, -2, 127, -2, -2], "classes": [0, 1, 2, 3, 4], "value": [[13.0, 0.0, 2.0, 6.0, 14.0], [0.0, 0.0, 0.0, 1.0, 14.0], [0.0, 0.0, 0.0, 1.0, 0.0], [0.0, 0.0, 0.0, 0.0, 14.0], [13.0, 0.0, 2.0, 5.0, 0.0], [0.0, 0.0, 2.0, 4.0, 0.0], [13.0, 0.0, 0.0, 1.0, 0.0]]}, {"children_left": [1, -1, 3, -1, -1], "children_right": [2, -1, 4, -1, -1], "threshold": [-0.9000000059604645, -2.0, -0.5000000149011612, -2.0, -2.0], "feature": [178, -2, 28, -2, -2], "classes": [0, 1, 2, 3, 4], "value": [[13.0, 1.0, 3.0, 10.0, 8.0], [0.0, 0.0, 0.0, 0.0, 8.0], [13.0, 1.0, 3.0, 10.0, 0.0], [0.0, 0.0, 0.0, 7.0, 0.0], [13.0, 1.0, 3.0, 3.0, 0.0]]}, {"children_left": [1, -1, 3, -1, -1], "children_right": [2, -1, 4, -1, -1], "threshold": [-0.15000000223517418, -2.0, 10.550000190734863, -2.0, -2.0], "feature": [108, -2, 128, -2, -2], "classes": [0, 1, 2, 3, 4], "value": [[6.0, 0.0, 0.0, 11.0, 18.0], [0.0, 0.0, 0.0, 0.0, 18.0], [6.0, 0.0, 0.0, 11.0, 0.0], [0.0, 0.0, 0.0, 11.0, 0.0], [6.0, 0.0, 0.0, 0.0, 0.0]]}, {"children_left": [1, -1, 3, -1, -1], "children_right": [2, -1, 4, -1, -1], "threshold": [-2.799999952316284, -2.0, -0.05000000074505806, -2.0, -2.0], "feature": [179, -2, 100, -2, -2], "classes": [0, 1, 2, 3, 4], "value": [[9.0, 1.0, 1.0, 9.0, 15.0], [0.0, 0.0, 0.0, 0.0, 14.0], [9.0, 1.0, 1.0, 9.0, 1.0], [0.0, 0.0, 1.0, 9.0, 1.0], [9.0, 1.0, 0.0, 0.0, 0.0]]}, {"children_left": [1, 2, -1, -1, 5, -1, -1], "children_right": [4, 3, -1, -1, 6, -1, -1], "threshold": [-0.10000000149011612, -0.9999999403953552, -2.0, -2.0, 0.0, -2.0, -2.0], "feature": [108, 125, -2, -2, 127, -2, -2], "classes": [0, 1, 2, 3, 4], "value": [[9.0, 0.0, 2.0, 13.0, 11.0], [0.0, 0.0, 2.0, 0.0, 11.0], [0.0, 0.0, 2.0, 0.0, 0.0], [0.0, 0.0, 0.0, 0.0, 11.0], [9.0, 0.0, 0.0, 13.0, 0.0], [0.0, 0.0, 0.0, 12.0, 0.0], [9.0, 0.0, 0.0, 1.0, 0.0]]}, {"children_left": [1, 2, -1, -1, 5, -1, -1], "children_right": [4, 3, -1, -1, 6, -1, -1], "threshold": [0.05000000074505806, 0.10000000149011612, -2.0, -2.0, 0.0, -2.0, -2.0], "feature": [122, 87, -2, -2, 125, -2, -2], "classes": [0, 1, 2, 3, 4], "value": [[11.0, 0.0, 0.0, 4.0, 20.0], [11.0, 0.0, 0.0, 3.0, 2.0], [10.0, 0.0, 0.0, 0.0, 0.0], [1.0, 0.0, 0.0, 3.0, 2.0], [0.0, 0.0, 0.0, 1.0, 18.0], [0.0, 0.0, 0.0, 1.0, 0.0], [0.0, 0.0, 0.0, 0.0, 18.0]]}, {"children_left": [1, 2, -1, -1, 5, -1, -1], "children_right": [4, 3, -1, -1, 6, -1, -1], "threshold": [12.800000190734863, -0.15000000223517418, -2.0, -2.0, -0.30000000074505806, -2.0, -2.0], "feature": [119, 130, -2, -2, 166, -2, -2], "classes": [0, 1, 2, 3, 4], "value": [[13.0, 1.0, 0.0, 15.0, 6.0], [3.0, 1.0, 0.0, 15.0, 0.0], [3.0, 0.0, 0.0, 0.0, 0.0], [0.0, 1.0, 0.0, 15.0, 0.0], [10.0, 0.0, 0.0, 0.0, 6.0], [0.0, 0.0, 0.0, 0.0, 6.0], [10.0, 0.0, 0.0, 0.0, 0.0]]}, {"children_left": [1, -1, 3, -1, -1], "children_right": [2, -1, 4, -1, -1], "threshold": [-0.20000000670552254, -2.0, -0.5000000149011612, -2.0, -2.0], "feature": [75, -2, 10, -2, -2], "classes": [0, 1, 2, 3, 4], "value": [[12.0, 0.0, 0.0, 7.0, 16.0], [0.0, 0.0, 0.0, 0.0, 14.0], [12.0, 0.0, 0.0, 7.0, 2.0], [0.0, 0.0, 0.0, 6.0, 0.0], [12.0, 0.0, 0.0, 1.0, 2.0]]}, {"children_left": [1, 2, -1, -1, 5, -1, -1], "children_right": [4, 3, -1, -1, 6, -1, -1], "threshold": [0.05000000074505806, 6.75, -2.0, -2.0, -0.4000000134110451, -2.0, -2.0], "feature": [124, 155, -2, -2, 84, -2, -2], "classes": [0, 1, 2, 3, 4], "value": [[13.0, 0.0, 0.0, 15.0, 7.0], [2.0, 0.0, 0.0, 15.0, 5.0], [0.0, 0.0, 0.0, 0.0, 5.0], [2.0, 0.0, 0.0, 15.0, 0.0], [11.0, 0.0, 0.0, 0.0, 2.0], [0.0, 0.0, 0.0, 0.0, 2.0], [11.0, 0.0, 0.0, 0.0, 0.0]]}, {"children_left": [1, -1, 3, -1, -1], "children_right": [2, -1, 4, -1, -1], "threshold": [-0.8499999940395355, -2.0, -0.05000000074505806, -2.0, -2.0], "feature": [178, -2, 3, -2, -2], "classes": [0, 1, 2, 3, 4], "value": [[9.0, 2.0, 2.0, 8.0, 14.0], [0.0, 0.0, 0.0, 0.0, 14.0], [9.0, 2.0, 2.0, 8.0, 0.0], [8.0, 0.0, 0.0, 0.0, 0.0], [1.0, 2.0, 2.0, 8.0, 0.0]]}, {"children_left": [1, 2, -1, -1, -1], "children_right": [4, 3, -1, -1, -1], "threshold": [5.8999998569488525, 0.05000000074505806, -2.0, -2.0, -2.0], "feature": [125, 3, -2, -2, -2], "classes": [0, 1, 2, 3, 4], "value": [[15.0, 1.0, 0.0, 10.0, 9.0], [15.0, 1.0, 0.0, 10.0, 1.0], [15.0, 0.0, 0.0, 1.0, 1.0], [0.0, 1.0, 0.0, 9.0, 0.0], [0.0, 0.0, 0.0, 0.0, 8.0]]}, {"children_left": [1, 2, -1, -1, 5, -1, -1], "children_right": [4, 3, -1, -1, 6, -1, -1], "threshold": [-2.799999952316284, 0.19999999925494194, -2.0, -2.0, -0.2500000074505806, -2.0, -2.0], "feature": [179, 109, -2, -2, 169, -2, -2], "classes": [0, 1, 2, 3, 4], "value": [[7.0, 0.0, 2.0, 14.0, 12.0], [1.0, 0.0, 0.0, 0.0, 12.0], [0.0, 0.0, 0.0, 0.0, 12.0], [1.0, 0.0, 0.0, 0.0, 0.0], [6.0, 0.0, 2.0, 14.0, 0.0], [2.0, 0.0, 0.0, 14.0, 0.0], [4.0, 0.0, 2.0, 0.0, 0.0]]}, {"children_left": [1, 2, -1, -1, -1], "children_right": [4, 3, -1, -1, -1], "threshold": [16.500000476837158, -2.3000000715255737, -2.0, -2.0, -2.0], "feature": [110, 35, -2, -2, -2], "classes": [0, 1, 2, 3, 4], "value": [[11.0, 2.0, 0.0, 15.0, 7.0], [11.0, 2.0, 0.0, 15.0, 1.0], [9.0, 2.0, 0.0, 2.0, 0.0], [2.0, 0.0, 0.0, 13.0, 1.0], [0.0, 0.0, 0.0, 0.0, 6.0]]}, {"children_left": [1, 2, -1, -1, 5, -1, -1], "children_right": [4, 3, -1, -1, 6, -1, -1], "threshold": [-0.15000000223517418, 0.6500000059604645, -2.0, -2.0, -0.3500000089406967, -2.0, -2.0], "feature": [81, 42, -2, -2, 64, -2, -2], "classes": [0, 1, 2, 3, 4], "value": [[10.0, 1.0, 1.0, 15.0, 8.0], [0.0, 1.0, 1.0, 0.0, 8.0], [0.0, 0.0, 0.0, 0.0, 8.0], [0.0, 1.0, 1.0, 0.0, 0.0], [10.0, 0.0, 0.0, 15.0, 0.0], [0.0, 0.0, 0.0, 11.0, 0.0], [10.0, 0.0, 0.0, 4.0, 0.0]]}, {"children_left": [1, 2, -1, -1, -1], "children_right": [4, 3, -1, -1, -1], "threshold": [0.15000000223517418, 1.050000011920929, -2.0, -2.0, -2.0], "feature": [158, 9, -2, -2, -2], "classes": [0, 1, 2, 3, 4], "value": [[8.0, 1.0, 1.0, 14.0, 11.0], [8.0, 1.0, 1.0, 14.0, 5.0], [1.0, 1.0, 1.0, 14.0, 3.0], [7.0, 0.0, 0.0, 0.0, 2.0], [0.0, 0.0, 0.0, 0.0, 6.0]]}, {"children_left": [1, 2, -1, -1, 5, -1, -1], "children_right": [4, 3, -1, -1, 6, -1, -1], "threshold": [-0.15000000223517418, 0.20000000670552254, -2.0, -2.0, 0.05000000074505806, -2.0, -2.0], "feature": [153, 24, -2, -2, 78, -2, -2], "classes": [0, 1, 2, 3, 4], "value": [[9.0, 2.0, 1.0, 10.0, 13.0], [0.0, 2.0, 0.0, 0.0, 12.0], [0.0, 0.0, 0.0, 0.0, 12.0], [0.0, 2.0, 0.0, 0.0, 0.0], [9.0, 0.0, 1.0, 10.0, 1.0], [9.0, 0.0, 1.0, 2.0, 0.0], [0.0, 0.0, 0.0, 8.0, 1.0]]}, {"children_left": [1, 2, -1, -1, 5, -1, -1], "children_right": [4, 3, -1, -1, 6, -1, -1], "threshold": [-0.45000000298023224, -0.10000000149011612, -2.0, -2.0, -0.8499999940395355, -2.0, -2.0], "feature": [1, 28, -2, -2, 177, -2, -2], "classes": [0, 1, 2, 3, 4], "value": [[13.0, 2.0, 1.0, 10.0, 9.0], [0.0, 2.0, 1.0, 10.0, 0.0], [0.0, 0.0, 0.0, 10.0, 0.0], [0.0, 2.0, 1.0, 0.0, 0.0], [13.0, 0.0, 0.0, 0.0, 9.0], [0.0, 0.0, 0.0, 0.0, 7.0], [13.0, 0.0, 0.0, 0.0, 2.0]]}, {"children_left": [1, -1, 3, -1, -1], "children_right": [2, -1, 4, -1, -1], "threshold": [-3.450000047683716, -2.0, -0.45000001788139343, -2.0, -2.0], "feature": [179, -2, 143, -2, -2], "classes": [0, 1, 2, 3, 4], "value": [[11.0, 0.0, 3.0, 8.0, 13.0], [0.0, 0.0, 0.0, 0.0, 13.0], [11.0, 0.0, 3.0, 8.0, 0.0], [3.0, 0.0, 3.0, 8.0, 0.0], [8.0, 0.0, 0.0, 0.0, 0.0]]}, {"children_left": [1, -1, 3, -1, -1], "children_right": [2, -1, 4, -1, -1], "threshold": [-0.10000000149011612, -2.0, 11.900000095367432, -2.0, -2.0], "feature": [153, -2, 119, -2, -2], "classes": [0, 1, 2, 3, 4], "value": [[6.0, 0.0, 1.0, 12.0, 16.0], [0.0, 0.0, 0.0, 0.0, 10.0], [6.0, 0.0, 1.0, 12.0, 6.0], [1.0, 0.0, 1.0, 12.0, 0.0], [5.0, 0.0, 0.0, 0.0, 6.0]]}, {"children_left": [1, 2, -1, -1, 5, -1, -1], "children_right": [4, 3, -1, -1, 6, -1, -1], "threshold": [-0.3500000089406967, 8.25, -2.0, -2.0, -0.75, -2.0, -2.0], "feature": [151, 155, -2, -2, 87, -2, -2], "classes": [0, 1, 2, 3, 4], "value": [[15.0, 1.0, 1.0, 6.0, 12.0], [0.0, 0.0, 0.0, 4.0, 10.0], [0.0, 0.0, 0.0, 0.0, 10.0], [0.0, 0.0, 0.0, 4.0, 0.0], [15.0, 1.0, 1.0, 2.0, 2.0], [0.0, 1.0, 1.0, 1.0, 2.0], [15.0, 0.0, 0.0, 1.0, 0.0]]}, {"children_left": [1, -1, 3, -1, -1], "children_right": [2, -1, 4, -1, -1], "threshold": [-0.6000000089406967, -2.0, -0.15000000223517418, -2.0, -2.0], "feature": [51, -2, 126, -2, -2], "classes": [0, 1, 2, 3, 4], "value": [[15.0, 3.0, 0.0, 9.0, 8.0], [0.0, 0.0, 0.0, 0.0, 6.0], [15.0, 3.0, 0.0, 9.0, 2.0], [0.0, 3.0, 0.0, 0.0, 2.0], [15.0, 0.0, 0.0, 9.0, 0.0]]}, {"children_left": [1, 2, -1, -1, 5, -1, -1], "children_right": [4, 3, -1, -1, 6, -1, -1], "threshold": [-0.45000001788139343, 21.050000190734863, -2.0, -2.0, -0.15000000596046448, -2.0, -2.0], "feature": [84, 83, -2, -2, 143, -2, -2], "classes": [0, 1, 2, 3, 4], "value": [[10.0, 0.0, 1.0, 14.0, 10.0], [0.0, 0.0, 1.0, 0.0, 9.0], [0.0, 0.0, 0.0, 0.0, 9.0], [0.0, 0.0, 1.0, 0.0, 0.0], [10.0, 0.0, 0.0, 14.0, 1.0], [1.0, 0.0, 0.0, 14.0, 1.0], [9.0, 0.0, 0.0, 0.0, 0.0]]}, {"children_left": [1, 2, -1, -1, 5, -1, -1], "children_right": [4, 3, -1, -1, 6, -1, -1], "threshold": [-0.3500000089406967, 0.550000011920929, -2.0, -2.0, -0.20000000670552254, -2.0, -2.0], "feature": [127, 98, -2, -2, 100, -2, -2], "classes": [0, 1, 2, 3, 4], "value": [[10.0, 2.0, 0.0, 15.0, 8.0], [0.0, 2.0, 0.0, 14.0, 3.0], [0.0, 2.0, 0.0, 0.0, 3.0], [0.0, 0.0, 0.0, 14.0, 0.0], [10.0, 0.0, 0.0, 1.0, 5.0], [0.0, 0.0, 0.0, 1.0, 5.0], [10.0, 0.0, 0.0, 0.0, 0.0]]}, {"children_left": [1, 2, -1, -1, 5, -1, -1], "children_right": [4, 3, -1, -1, 6, -1, -1], "threshold": [0.0, 8.800000190734863, -2.0, -2.0, -0.3500000014901161, -2.0, -2.0], "feature": [99, 146, -2, -2, 127, -2, -2], "classes": [0, 1, 2, 3, 4], "value": [[11.0, 1.0, 2.0, 12.0, 9.0], [0.0, 1.0, 2.0, 0.0, 9.0], [0.0, 0.0, 0.0, 0.0, 9.0], [0.0, 1.0, 2.0, 0.0, 0.0], [11.0, 0.0, 0.0, 12.0, 0.0], [0.0, 0.0, 0.0, 11.0, 0.0], [11.0, 0.0, 0.0, 1.0, 0.0]]}]}